,valoracion_stockfish
0,-51.0
1,108.0
2,-22.0
3,126.0
4,-125.0
5,189.0
6,-131.0
7,190.0
8,-123.0
9,89.0
10,-161.0
11,217.0
12,-29.0
13,203.0
14,-38.0
15,66.0
16,-28.0
17,71.0
18,-1.0
19,98.0
20,-74.0
21,74.0
22,-86.0
23,125.0
24,-50.0
25,112.0
26,-107.0
27,171.0
28,-305.0
29,180.0
30,-237.0
31,304.0
32,-65.0
33,251.0
34,-22.0
35,187.0
36,-174.0
37,430.0
38,-371.0
39,489.0
40,-294.0
41,382.0
42,-429.0
43,373.0
44,-308.0
45,422.0
46,-561.0
47,557.0
48,-330.0
49,493.0
50,-462.0
51,591.0
52,-479.0
53,659.0
54,-598.0
55,972.0
56,-609.0
57,9.0
58,-51.0
59,48.0
60,-76.0
61,50.0
62,-29.0
63,39.0
64,-29.0
65,55.0
66,-24.0
67,8.0
68,-23.0
69,1.0
70,0.0
71,-20.0
72,12.0
73,0.0
74,77.0
75,-36.0
76,66.0
77,-2.0
78,55.0
79,-70.0
80,81.0
81,38.0
82,5.0
83,113.0
84,-62.0
85,121.0
86,-12.0
87,98.0
88,-123.0
89,147.0
90,-33.0
91,132.0
92,-161.0
93,165.0
94,-188.0
95,210.0
96,-225.0
97,260.0
98,-241.0
99,280.0
100,-217.0
101,297.0
102,-261.0
103,204.0
104,-250.0
105,338.0
106,-236.0
107,236.0
108,-240.0
109,237.0
110,-211.0
111,319.0
112,-214.0
113,240.0
114,-209.0
115,307.0
116,-235.0
117,365.0
118,-236.0
119,269.0
120,-248.0
121,215.0
122,-191.0
123,277.0
124,-300.0
125,321.0
126,-341.0
127,328.0
128,-324.0
129,305.0
130,-368.0
131,325.0
132,-362.0
133,356.0
134,-353.0
135,373.0
136,-389.0
137,402.0
138,-400.0
139,431.0
140,-393.0
141,423.0
142,-408.0
143,508.0
144,-466.0
145,512.0
146,-432.0
147,558.0
148,-460.0
149,878.0
150,-826.0
151,-46.0
152,35.0
153,-51.0
154,26.0
155,-45.0
156,30.0
157,-24.0
158,75.0
159,26.0
160,69.0
161,28.0
162,44.0
163,-17.0
164,129.0
165,-54.0
166,73.0
167,-66.0
168,71.0
169,-86.0
170,95.0
171,-37.0
172,65.0
173,-81.0
174,105.0
175,-53.0
176,82.0
177,-55.0
178,124.0
179,11.0
180,162.0
181,-121.0
182,199.0
183,-78.0
184,213.0
185,-324.0
186,213.0
187,-120.0
188,652.0
189,-649.0
190,768.0
191,-681.0
192,766.0
193,-739.0
194,762.0
195,-781.0
196,795.0
197,-879.0
198,844.0
199,-833.0
200,835.0
201,-876.0
202,893.0
203,-832.0
204,848.0
205,-809.0
206,878.0
207,-826.0
208,936.0
209,-859.0
210,892.0
211,-886.0
212,929.0
213,-930.0
214,971.0
215,-698.0
216,781.0
217,-675.0
218,676.0
219,-690.0
220,713.0
221,-717.0
222,748.0
223,-694.0
224,795.0
225,-772.0
226,743.0
227,-735.0
228,823.0
229,-782.0
230,786.0
231,-721.0
232,888.0
233,-823.0
234,847.0
235,-840.0
236,841.0
237,-886.0
238,909.0
239,-911.0
240,6242.0
241,-6395.0
242,6273.0
243,-6465.0
244,6474.0
245,-6474.0
246,6450.0
247,-6445.0
248,6475.0
249,-6483.0
250,6493.0
251,-7612.0
252,5.0
253,-4.0
254,3.0
255,-2.0
256,2.0
257,-1.0
258,1.0
259,-51.0
260,50.0
261,-62.0
262,32.0
263,-46.0
264,85.0
265,-69.0
266,111.0
267,-78.0
268,89.0
269,-109.0
270,79.0
271,-55.0
272,128.0
273,-83.0
274,89.0
275,-75.0
276,79.0
277,-47.0
278,55.0
279,-41.0
280,34.0
281,-48.0
282,95.0
283,-37.0
284,86.0
285,-122.0
286,158.0
287,-229.0
288,202.0
289,-256.0
290,225.0
291,-295.0
292,217.0
293,-171.0
294,389.0
295,-124.0
296,114.0
297,-183.0
298,202.0
299,-205.0
300,219.0
301,-203.0
302,244.0
303,-218.0
304,235.0
305,-277.0
306,249.0
307,-226.0
308,325.0
309,-198.0
310,194.0
311,-214.0
312,202.0
313,-223.0
314,241.0
315,-225.0
316,180.0
317,-235.0
318,217.0
319,-211.0
320,210.0
321,-203.0
322,226.0
323,-226.0
324,217.0
325,-141.0
326,208.0
327,-227.0
328,198.0
329,-199.0
330,263.0
331,-115.0
332,169.0
333,-159.0
334,183.0
335,-243.0
336,208.0
337,-198.0
338,218.0
339,-153.0
340,239.0
341,-176.0
342,136.0
343,-141.0
344,187.0
345,-133.0
346,447.0
347,-59.0
348,178.0
349,-171.0
350,184.0
351,-235.0
352,232.0
353,-155.0
354,258.0
355,-163.0
356,200.0
357,-241.0
358,237.0
359,-174.0
360,214.0
361,-216.0
362,226.0
363,-149.0
364,209.0
365,-208.0
366,104.0
367,-76.0
368,117.0
369,-80.0
370,329.0
371,-113.0
372,43.0
373,-14.0
374,55.0
375,-13.0
376,12.0
377,-12.0
378,0.0
379,-11.0
380,0.0
381,-1.0
382,-1.0
383,4.0
384,19.0
385,-15.0
386,15.0
387,-19.0
388,10.0
389,-8.0
390,12.0
391,14.0
392,1.0
393,-12.0
394,17.0
395,-51.0
396,92.0
397,-112.0
398,95.0
399,-115.0
400,161.0
401,-117.0
402,119.0
403,-118.0
404,159.0
405,-81.0
406,119.0
407,-101.0
408,63.0
409,-113.0
410,65.0
411,-79.0
412,101.0
413,-82.0
414,107.0
415,-85.0
416,86.0
417,-84.0
418,66.0
419,-27.0
420,135.0
421,-13.0
422,150.0
423,-114.0
424,55.0
425,-100.0
426,129.0
427,-175.0
428,139.0
429,-153.0
430,221.0
431,-131.0
432,19.0
433,23.0
434,0.0
435,57.0
436,-26.0
437,12.0
438,-32.0
439,49.0
440,-41.0
441,44.0
442,-47.0
443,44.0
444,40.0
445,70.0
446,401.0
447,-328.0
448,363.0
449,-296.0
450,376.0
451,-234.0
452,317.0
453,-278.0
454,314.0
455,-352.0
456,496.0
457,-136.0
458,348.0
459,-416.0
460,311.0
461,-290.0
462,294.0
463,-105.0
464,150.0
465,423.0
466,-231.0
467,555.0
468,424.0
469,-28.0
470,147.0
471,0.0
472,342.0
473,-316.0
474,-37.0
475,34.0
476,-26.0
477,12.0
478,-35.0
479,40.0
480,-29.0
481,36.0
482,0.0
483,55.0
484,-56.0
485,75.0
486,-45.0
487,73.0
488,-70.0
489,78.0
490,-62.0
491,95.0
492,-66.0
493,75.0
494,-38.0
495,21.0
496,-23.0
497,36.0
498,0.0
499,70.0
500,-19.0
501,-3.0
502,57.0
503,-48.0
504,183.0
505,-95.0
506,80.0
507,-24.0
508,46.0
509,-31.0
510,47.0
511,-60.0
512,38.0
513,-9.0
514,20.0
515,-36.0
516,130.0
517,5.0
518,-6.0
519,52.0
520,98.0
521,-86.0
522,-58.0
523,-70.0
524,25.0
525,-23.0
526,202.0
527,-418.0
528,298.0
529,-306.0
530,404.0
531,-448.0
532,434.0
533,-440.0
534,471.0
535,-470.0
536,519.0
537,-283.0
538,196.0
539,-191.0
540,376.0
541,-247.0
542,392.0
543,-325.0
544,473.0
545,-295.0
546,509.0
547,-432.0
548,201.0
549,-269.0
550,693.0
551,-413.0
552,471.0
553,-420.0
554,-51.0
555,32.0
556,-18.0
557,31.0
558,6.0
559,62.0
560,-30.0
561,61.0
562,-59.0
563,65.0
564,-42.0
565,132.0
566,-53.0
567,48.0
568,-99.0
569,143.0
570,-74.0
571,116.0
572,-101.0
573,35.0
574,-124.0
575,154.0
576,-91.0
577,233.0
578,-142.0
579,223.0
580,-157.0
581,181.0
582,-161.0
583,257.0
584,-194.0
585,238.0
586,-264.0
587,220.0
588,-155.0
589,213.0
590,-125.0
591,113.0
592,-13.0
593,18.0
594,-27.0
595,-15.0
596,-11.0
597,115.0
598,-89.0
599,161.0
600,-128.0
601,434.0
602,-100.0
603,214.0
604,299.0
605,-288.0
606,271.0
607,-148.0
608,258.0
609,-73.0
610,215.0
611,59.0
612,275.0
613,-150.0
614,124.0
615,-14.0
616,193.0
617,-348.0
618,395.0
619,-133.0
620,145.0
621,-181.0
622,162.0
623,-81.0
624,181.0
625,-83.0
626,162.0
627,-142.0
628,189.0
629,-73.0
630,167.0
631,-168.0
632,240.0
633,-34.0
634,108.0
635,-105.0
636,169.0
637,-111.0
638,213.0
639,-196.0
640,156.0
641,-191.0
642,215.0
643,-266.0
644,168.0
645,-143.0
646,175.0
647,-220.0
648,196.0
649,-129.0
650,155.0
651,-161.0
652,189.0
653,-188.0
654,165.0
655,-172.0
656,194.0
657,-208.0
658,205.0
659,-164.0
660,158.0
661,-207.0
662,150.0
663,-138.0
664,139.0
665,-49.0
666,48.0
667,-44.0
668,39.0
669,-40.0
670,43.0
671,-26.0
672,28.0
673,-43.0
674,47.0
675,-33.0
676,41.0
677,-28.0
678,21.0
679,-32.0
680,33.0
681,-35.0
682,29.0
683,-37.0
684,28.0
685,-28.0
686,26.0
687,-20.0
688,26.0
689,-12.0
690,58.0
691,-32.0
692,47.0
693,-26.0
694,26.0
695,-32.0
696,20.0
697,-34.0
698,26.0
699,-30.0
700,29.0
701,-24.0
702,32.0
703,-29.0
704,30.0
705,-26.0
706,26.0
707,-28.0
708,72.0
709,10.0
710,11.0
711,-56.0
712,28.0
713,47.0
714,87.0
715,-105.0
716,101.0
717,-95.0
718,187.0
719,-195.0
720,234.0
721,-192.0
722,241.0
723,-260.0
724,221.0
725,-183.0
726,139.0
727,-242.0
728,140.0
729,-87.0
730,328.0
731,-172.0
732,332.0
733,-77.0
734,244.0
735,-415.0
736,527.0
737,-401.0
738,528.0
739,-586.0
740,732.0
741,-725.0
742,925.0
743,-717.0
744,774.0
745,-5.0
746,5.0
747,-4.0
748,1.0
749,-51.0
750,35.0
751,-51.0
752,26.0
753,-42.0
754,43.0
755,37.0
756,55.0
757,-22.0
758,21.0
759,21.0
760,21.0
761,4.0
762,28.0
763,-2.0
764,-25.0
765,24.0
766,-51.0
767,79.0
768,-85.0
769,98.0
770,-34.0
771,29.0
772,-39.0
773,65.0
774,-54.0
775,87.0
776,40.0
777,92.0
778,-92.0
779,126.0
780,-51.0
781,64.0
782,-99.0
783,99.0
784,1049.0
785,-983.0
786,-46.0
787,34.0
788,-32.0
789,34.0
790,-28.0
791,115.0
792,-18.0
793,25.0
794,-25.0
795,66.0
796,-45.0
797,67.0
798,-39.0
799,66.0
800,48.0
801,87.0
802,-25.0
803,74.0
804,-49.0
805,172.0
806,73.0
807,29.0
808,-36.0
809,137.0
810,-86.0
811,102.0
812,-162.0
813,350.0
814,-389.0
815,325.0
816,-268.0
817,320.0
818,-258.0
819,378.0
820,-328.0
821,232.0
822,-642.0
823,764.0
824,-742.0
825,617.0
826,-771.0
827,934.0
828,-476.0
829,995.0
830,-691.0
831,771.0
832,-725.0
833,809.0
834,-805.0
835,4.0
836,-3.0
837,3.0
838,-2.0
839,-54.0
840,99.0
841,-54.0
842,96.0
843,-48.0
844,59.0
845,-42.0
846,48.0
847,-61.0
848,55.0
849,-40.0
850,58.0
851,-62.0
852,30.0
853,-59.0
854,81.0
855,-87.0
856,178.0
857,-128.0
858,162.0
859,-151.0
860,175.0
861,-79.0
862,174.0
863,4.0
864,28.0
865,9.0
866,83.0
867,73.0
868,103.0
869,-101.0
870,175.0
871,-88.0
872,217.0
873,-319.0
874,145.0
875,-71.0
876,214.0
877,-58.0
878,123.0
879,-118.0
880,171.0
881,-164.0
882,68.0
883,-82.0
884,195.0
885,0.0
886,598.0
887,-632.0
888,-39.0
889,60.0
890,3.0
891,26.0
892,-37.0
893,40.0
894,11.0
895,-17.0
896,62.0
897,14.0
898,-1.0
899,16.0
900,-12.0
901,-13.0
902,14.0
903,-13.0
904,18.0
905,-24.0
906,-7.0
907,11.0
908,48.0
909,-9.0
910,56.0
911,-15.0
912,-44.0
913,68.0
914,-60.0
915,45.0
916,-31.0
917,36.0
918,-22.0
919,78.0
920,6.0
921,140.0
922,-128.0
923,152.0
924,-69.0
925,138.0
926,-123.0
927,133.0
928,-85.0
929,121.0
930,-62.0
931,119.0
932,-50.0
933,108.0
934,-49.0
935,186.0
936,-154.0
937,212.0
938,-126.0
939,207.0
940,-123.0
941,91.0
942,-141.0
943,134.0
944,-109.0
945,164.0
946,-163.0
947,149.0
948,-169.0
949,150.0
950,-168.0
951,175.0
952,-150.0
953,161.0
954,-145.0
955,216.0
956,-139.0
957,-35.0
958,61.0
959,-11.0
960,13.0
961,-8.0
962,26.0
963,-16.0
964,25.0
965,-5.0
966,42.0
967,37.0
968,-41.0
969,71.0
970,38.0
971,36.0
972,0.0
973,37.0
974,-24.0
975,44.0
976,26.0
977,-40.0
978,-88.0
979,171.0
980,-110.0
981,208.0
982,-50.0
983,15.0
984,-62.0
985,66.0
986,-6.0
987,30.0
988,1.0
989,64.0
990,-46.0
991,43.0
992,-50.0
993,43.0
994,-59.0
995,68.0
996,-9.0
997,48.0
998,-94.0
999,162.0
1000,-102.0
1001,102.0
1002,-101.0
1003,103.0
1004,18.0
1005,120.0
1006,-93.0
1007,106.0
1008,24.0
1009,102.0
1010,-62.0
1011,148.0
1012,41.0
1013,108.0
1014,-112.0
1015,221.0
1016,-157.0
1017,335.0
1018,-348.0
1019,526.0
1020,-377.0
1021,801.0
1022,-662.0
1023,-54.0
1024,40.0
1025,-49.0
1026,30.0
1027,-12.0
1028,29.0
1029,-30.0
1030,25.0
1031,-18.0
1032,34.0
1033,-12.0
1034,37.0
1035,-13.0
1036,9.0
1037,-26.0
1038,35.0
1039,-8.0
1040,37.0
1041,-12.0
1042,90.0
1043,-29.0
1044,65.0
1045,-54.0
1046,157.0
1047,-125.0
1048,92.0
1049,-96.0
1050,183.0
1051,-110.0
1052,110.0
1053,-132.0
1054,86.0
1055,-100.0
1056,84.0
1057,-89.0
1058,92.0
1059,-80.0
1060,109.0
1061,-109.0
1062,97.0
1063,-44.0
1064,37.0
1065,-4.0
1066,-4.0
1067,-2.0
1068,19.0
1069,3.0
1070,0.0
1071,0.0
1072,-2.0
1073,-3.0
1074,-7.0
1075,-3.0
1076,-8.0
1077,5.0
1078,0.0
1079,1.0
1080,-12.0
1081,1.0
1082,-8.0
1083,-8.0
1084,1.0
1085,9.0
1086,-8.0
1087,9.0
1088,-12.0
1089,4.0
1090,0.0
1091,0.0
1092,-10.0
1093,-3.0
1094,-11.0
1095,0.0
1096,0.0
1097,0.0
1098,-7.0
1099,3.0
1100,0.0
1101,9.0
1102,0.0
1103,9.0
1104,0.0
1105,-54.0
1106,99.0
1107,-54.0
1108,96.0
1109,-39.0
1110,59.0
1111,-40.0
1112,21.0
1113,30.0
1114,43.0
1115,-102.0
1116,64.0
1117,85.0
1118,-32.0
1119,12.0
1120,59.0
1121,32.0
1122,8.0
1123,30.0
1124,54.0
1125,-128.0
1126,100.0
1127,-120.0
1128,108.0
1129,-155.0
1130,137.0
1131,-62.0
1132,4.0
1133,157.0
1134,52.0
1135,80.0
1136,-119.0
1137,99.0
1138,-4.0
1139,88.0
1140,-3.0
1141,60.0
1142,0.0
1143,92.0
1144,-12.0
1145,86.0
1146,0.0
1147,0.0
1148,-163.0
1149,86.0
1150,0.0
1151,144.0
1152,-37.0
1153,34.0
1154,-26.0
1155,65.0
1156,-100.0
1157,106.0
1158,-41.0
1159,64.0
1160,-35.0
1161,69.0
1162,-45.0
1163,-7.0
1164,-19.0
1165,62.0
1166,5.0
1167,55.0
1168,-54.0
1169,29.0
1170,108.0
1171,-123.0
1172,-158.0
1173,62.0
1174,-59.0
1175,42.0
1176,72.0
1177,59.0
1178,-36.0
1179,68.0
1180,-47.0
1181,60.0
1182,42.0
1183,21.0
1184,-12.0
1185,24.0
1186,-52.0
1187,24.0
1188,-15.0
1189,21.0
1190,-10.0
1191,37.0
1192,4.0
1193,-12.0
1194,15.0
1195,25.0
1196,47.0
1197,7.0
1198,4.0
1199,26.0
1200,21.0
1201,6.0
1202,9.0
1203,-6.0
1204,-35.0
1205,131.0
1206,-29.0
1207,20.0
1208,-32.0
1209,56.0
1210,-40.0
1211,30.0
1212,-25.0
1213,34.0
1214,-34.0
1215,70.0
1216,-27.0
1217,66.0
1218,-42.0
1219,79.0
1220,-21.0
1221,57.0
1222,7.0
1223,79.0
1224,-43.0
1225,83.0
1226,-52.0
1227,21.0
1228,-25.0
1229,190.0
1230,-112.0
1231,188.0
1232,-82.0
1233,208.0
1234,-58.0
1235,54.0
1236,-12.0
1237,55.0
1238,-59.0
1239,49.0
1240,-39.0
1241,22.0
1242,-72.0
1243,78.0
1244,-81.0
1245,43.0
1246,-102.0
1247,110.0
1248,-201.0
1249,263.0
1250,-193.0
1251,453.0
1252,-223.0
1253,280.0
1254,-366.0
1255,416.0
1256,-278.0
1257,309.0
1258,-290.0
1259,356.0
1260,-350.0
1261,375.0
1262,-350.0
1263,323.0
1264,-338.0
1265,216.0
1266,-100.0
1267,225.0
1268,-115.0
1269,164.0
1270,-158.0
1271,180.0
1272,-179.0
1273,340.0
1274,-256.0
1275,219.0
1276,-182.0
1277,248.0
1278,-175.0
1279,209.0
1280,-177.0
1281,271.0
1282,-203.0
1283,251.0
1284,-286.0
1285,231.0
1286,-146.0
1287,185.0
1288,-261.0
1289,222.0
1290,-292.0
1291,216.0
1292,-186.0
1293,218.0
1294,-129.0
1295,128.0
1296,-104.0
1297,237.0
1298,-45.0
1299,82.0
1300,-60.0
1301,112.0
1302,-14.0
1303,28.0
1304,-50.0
1305,19.0
1306,-20.0
1307,55.0
1308,-87.0
1309,83.0
1310,-90.0
1311,85.0
1312,-65.0
1313,-20.0
1314,-26.0
1315,85.0
1316,-18.0
1317,26.0
1318,-22.0
1319,33.0
1320,0.0
1321,13.0
1322,-12.0
1323,12.0
1324,-12.0
1325,3.0
1326,-12.0
1327,3.0
1328,0.0
1329,0.0
1330,-37.0
1331,34.0
1332,-32.0
1333,53.0
1334,-28.0
1335,36.0
1336,-12.0
1337,31.0
1338,-13.0
1339,47.0
1340,-12.0
1341,34.0
1342,-27.0
1343,36.0
1344,-19.0
1345,20.0
1346,20.0
1347,-9.0
1348,6.0
1349,-21.0
1350,0.0
1351,12.0
1352,-62.0
1353,86.0
1354,-9.0
1355,9.0
1356,-1.0
1357,29.0
1358,-13.0
1359,-9.0
1360,23.0
1361,-27.0
1362,10.0
1363,-14.0
1364,-40.0
1365,101.0
1366,-10.0
1367,93.0
1368,-106.0
1369,48.0
1370,-13.0
1371,54.0
1372,-99.0
1373,49.0
1374,-66.0
1375,174.0
1376,10.0
1377,-12.0
1378,-11.0
1379,-40.0
1380,33.0
1381,-40.0
1382,75.0
1383,-82.0
1384,-7.0
1385,-20.0
1386,130.0
1387,-54.0
1388,115.0
1389,88.0
1390,82.0
1391,-179.0
1392,72.0
1393,-34.0
1394,-17.0
1395,-11.0
1396,119.0
1397,-76.0
1398,218.0
1399,-69.0
1400,155.0
1401,-66.0
1402,100.0
1403,-79.0
1404,141.0
1405,-13.0
1406,12.0
1407,-12.0
1408,12.0
1409,-9.0
1410,5.0
1411,0.0
1412,12.0
1413,-12.0
1414,10.0
1415,0.0
1416,-12.0
1417,-12.0
1418,-12.0
1419,11.0
1420,0.0
1421,-54.0
1422,34.0
1423,-51.0
1424,64.0
1425,-42.0
1426,113.0
1427,-40.0
1428,19.0
1429,-8.0
1430,39.0
1431,-18.0
1432,2.0
1433,-3.0
1434,37.0
1435,-36.0
1436,17.0
1437,14.0
1438,3.0
1439,9.0
1440,7.0
1441,-6.0
1442,12.0
1443,13.0
1444,55.0
1445,-11.0
1446,120.0
1447,-33.0
1448,56.0
1449,-9.0
1450,68.0
1451,-37.0
1452,99.0
1453,-93.0
1454,161.0
1455,-55.0
1456,74.0
1457,-72.0
1458,83.0
1459,-64.0
1460,133.0
1461,-89.0
1462,58.0
1463,13.0
1464,47.0
1465,-144.0
1466,235.0
1467,-169.0
1468,243.0
1469,-270.0
1470,199.0
1471,-245.0
1472,195.0
1473,-229.0
1474,200.0
1475,-200.0
1476,272.0
1477,-216.0
1478,201.0
1479,-216.0
1480,219.0
1481,-162.0
1482,329.0
1483,-296.0
1484,191.0
1485,-178.0
1486,198.0
1487,-229.0
1488,301.0
1489,-172.0
1490,220.0
1491,-146.0
1492,114.0
1493,-15.0
1494,236.0
1495,-170.0
1496,161.0
1497,-175.0
1498,175.0
1499,-137.0
1500,187.0
1501,-193.0
1502,226.0
1503,-174.0
1504,176.0
1505,-191.0
1506,171.0
1507,-186.0
1508,199.0
1509,-180.0
1510,160.0
1511,-162.0
1512,196.0
1513,-221.0
1514,183.0
1515,-175.0
1516,171.0
1517,-245.0
1518,198.0
1519,-163.0
1520,217.0
1521,-187.0
1522,194.0
1523,-206.0
1524,209.0
1525,-186.0
1526,223.0
1527,-221.0
1528,223.0
1529,-249.0
1530,156.0
1531,-175.0
1532,227.0
1533,-212.0
1534,759.0
1535,-88.0
1536,94.0
1537,-91.0
1538,124.0
1539,-93.0
1540,83.0
1541,-103.0
1542,102.0
1543,-98.0
1544,84.0
1545,-87.0
1546,67.0
1547,-96.0
1548,85.0
1549,-82.0
1550,90.0
1551,-87.0
1552,97.0
1553,-101.0
1554,85.0
1555,-103.0
1556,97.0
1557,-69.0
1558,60.0
1559,-51.0
1560,131.0
1561,-100.0
1562,119.0
1563,-104.0
1564,279.0
1565,-71.0
1566,308.0
1567,-77.0
1568,124.0
1569,-91.0
1570,56.0
1571,-74.0
1572,69.0
1573,-58.0
1574,80.0
1575,-62.0
1576,48.0
1577,-20.0
1578,84.0
1579,-50.0
1580,275.0
1581,-213.0
1582,229.0
1583,-174.0
1584,221.0
1585,-48.0
1586,30.0
1587,-51.0
1588,94.0
1589,-40.0
1590,103.0
1591,-115.0
1592,65.0
1593,-56.0
1594,70.0
1595,2.0
1596,34.0
1597,4.0
1598,-31.0
1599,-3.0
1600,12.0
1601,52.0
1602,46.0
1603,12.0
1604,-4.0
1605,56.0
1606,-19.0
1607,78.0
1608,20.0
1609,80.0
1610,51.0
1611,-25.0
1612,73.0
1613,-35.0
1614,55.0
1615,-22.0
1616,44.0
1617,8.0
1618,21.0
1619,-17.0
1620,51.0
1621,-59.0
1622,33.0
1623,-1.0
1624,19.0
1625,11.0
1626,19.0
1627,-30.0
1628,90.0
1629,103.0
1630,-55.0
1631,22.0
1632,173.0
1633,7.0
1634,152.0
1635,-162.0
1636,239.0
1637,-123.0
1638,487.0
1639,-458.0
1640,465.0
1641,-463.0
1642,467.0
1643,-481.0
1644,559.0
1645,-434.0
1646,549.0
1647,-707.0
1648,606.0
1649,-640.0
1650,760.0
1651,-598.0
1652,498.0
1653,-379.0
1654,399.0
1655,-467.0
1656,535.0
1657,-437.0
1658,323.0
1659,-462.0
1660,442.0
1661,-462.0
1662,466.0
1663,-42.0
1664,61.0
1665,-17.0
1666,31.0
1667,-27.0
1668,13.0
1669,-36.0
1670,48.0
1671,-27.0
1672,35.0
1673,-23.0
1674,39.0
1675,-11.0
1676,36.0
1677,-8.0
1678,84.0
1679,-49.0
1680,54.0
1681,-58.0
1682,81.0
1683,-25.0
1684,37.0
1685,-47.0
1686,46.0
1687,-37.0
1688,73.0
1689,-47.0
1690,54.0
1691,-42.0
1692,52.0
1693,-14.0
1694,54.0
1695,-35.0
1696,19.0
1697,0.0
1698,1.0
1699,-41.0
1700,90.0
1701,-9.0
1702,37.0
1703,-10.0
1704,24.0
1705,-25.0
1706,-34.0
1707,112.0
1708,48.0
1709,-39.0
1710,52.0
1711,-50.0
1712,20.0
1713,-47.0
1714,33.0
1715,-18.0
1716,14.0
1717,-17.0
1718,5.0
1719,-41.0
1720,55.0
1721,-10.0
1722,142.0
1723,-46.0
1724,36.0
1725,-3.0
1726,10.0
1727,11.0
1728,5.0
1729,-33.0
1730,44.0
1731,-3.0
1732,-19.0
1733,-7.0
1734,5.0
1735,11.0
1736,16.0
1737,-16.0
1738,16.0
1739,0.0
1740,3.0
1741,-25.0
1742,26.0
1743,-20.0
1744,25.0
1745,-51.0
1746,66.0
1747,-18.0
1748,26.0
1749,-34.0
1750,43.0
1751,152.0
1752,-219.0
1753,148.0
1754,-155.0
1755,296.0
1756,-149.0
1757,229.0
1758,-208.0
1759,371.0
1760,-275.0
1761,318.0
1762,-341.0
1763,333.0
1764,-250.0
1765,364.0
1766,-259.0
1767,244.0
1768,-225.0
1769,248.0
1770,-230.0
1771,268.0
1772,-241.0
1773,250.0
1774,-187.0
1775,293.0
1776,-244.0
1777,245.0
1778,-212.0
1779,296.0
1780,-281.0
1781,-51.0
1782,40.0
1783,-49.0
1784,30.0
1785,-27.0
1786,5.0
1787,-26.0
1788,34.0
1789,-55.0
1790,5.0
1791,-19.0
1792,21.0
1793,3.0
1794,56.0
1795,-20.0
1796,21.0
1797,-5.0
1798,17.0
1799,-15.0
1800,30.0
1801,-37.0
1802,49.0
1803,-13.0
1804,52.0
1805,-46.0
1806,21.0
1807,-38.0
1808,37.0
1809,-13.0
1810,16.0
1811,0.0
1812,39.0
1813,-48.0
1814,53.0
1815,-23.0
1816,54.0
1817,-79.0
1818,20.0
1819,-5.0
1820,43.0
1821,-27.0
1822,106.0
1823,-102.0
1824,150.0
1825,-96.0
1826,154.0
1827,-145.0
1828,105.0
1829,-191.0
1830,184.0
1831,-103.0
1832,155.0
1833,-29.0
1834,74.0
1835,-52.0
1836,79.0
1837,-33.0
1838,12.0
1839,-26.0
1840,169.0
1841,-135.0
1842,41.0
1843,-6.0
1844,-11.0
1845,10.0
1846,61.0
1847,1.0
1848,0.0
1849,0.0
1850,0.0
1851,0.0
1852,0.0
1853,0.0
1854,0.0
1855,0.0
1856,0.0
1857,0.0
1858,0.0
1859,0.0
1860,0.0
1861,-49.0
1862,25.0
1863,-32.0
1864,53.0
1865,-37.0
1866,40.0
1867,-29.0
1868,36.0
1869,0.0
1870,55.0
1871,-56.0
1872,62.0
1873,-45.0
1874,61.0
1875,-17.0
1876,34.0
1877,-24.0
1878,21.0
1879,-37.0
1880,37.0
1881,-20.0
1882,0.0
1883,-13.0
1884,0.0
1885,-50.0
1886,9.0
1887,-8.0
1888,3.0
1889,-43.0
1890,38.0
1891,19.0
1892,168.0
1893,-29.0
1894,40.0
1895,12.0
1896,7.0
1897,-32.0
1898,70.0
1899,-28.0
1900,49.0
1901,-19.0
1902,33.0
1903,13.0
1904,42.0
1905,40.0
1906,56.0
1907,453.0
1908,-459.0
1909,-37.0
1910,34.0
1911,-32.0
1912,78.0
1913,-51.0
1914,47.0
1915,-61.0
1916,38.0
1917,-47.0
1918,75.0
1919,-73.0
1920,49.0
1921,-42.0
1922,38.0
1923,-49.0
1924,88.0
1925,-83.0
1926,87.0
1927,-39.0
1928,192.0
1929,-93.0
1930,80.0
1931,-43.0
1932,92.0
1933,-26.0
1934,34.0
1935,-48.0
1936,-12.0
1937,-2.0
1938,-72.0
1939,10.0
1940,-47.0
1941,274.0
1942,-279.0
1943,156.0
1944,-29.0
1945,151.0
1946,-139.0
1947,59.0
1948,-41.0
1949,104.0
1950,-92.0
1951,162.0
1952,-5.0
1953,142.0
1954,-119.0
1955,156.0
1956,-62.0
1957,94.0
1958,-137.0
1959,175.0
1960,-90.0
1961,132.0
1962,-28.0
1963,101.0
1964,-91.0
1965,98.0
1966,-34.0
1967,115.0
1968,-103.0
1969,107.0
1970,-97.0
1971,98.0
1972,-88.0
1973,118.0
1974,-98.0
1975,104.0
1976,-85.0
1977,126.0
1978,-88.0
1979,94.0
1980,-58.0
1981,87.0
1982,-112.0
1983,72.0
1984,-87.0
1985,131.0
1986,-94.0
1987,66.0
1988,-46.0
1989,73.0
1990,-47.0
1991,59.0
1992,-68.0
1993,97.0
1994,-70.0
1995,74.0
1996,-90.0
1997,114.0
1998,-133.0
1999,119.0
2000,-60.0
2001,115.0
2002,-122.0
2003,63.0
2004,-110.0
2005,102.0
2006,-31.0
2007,113.0
2008,-131.0
2009,148.0
2010,-104.0
2011,165.0
2012,-44.0
2013,131.0
2014,-81.0
2015,54.0
2016,-26.0
2017,19.0
2018,-4.0
2019,48.0
2020,-19.0
2021,26.0
2022,-27.0
2023,9.0
2024,-21.0
2025,17.0
2026,-31.0
2027,15.0
2028,-32.0
2029,14.0
2030,-51.0
2031,34.0
2032,55.0
2033,36.0
2034,37.0
2035,-12.0
2036,24.0
2037,3.0
2038,0.0
2039,5.0
2040,-23.0
2041,54.0
2042,-21.0
2043,17.0
2044,16.0
2045,10.0
2046,-18.0
2047,20.0
2048,-19.0
2049,8.0
2050,45.0
2051,-24.0
2052,82.0
2053,-48.0
2054,82.0
2055,-67.0
2056,80.0
2057,-57.0
2058,66.0
2059,-112.0
2060,-95.0
2061,42.0
2062,-5.0
2063,2.0
2064,-13.0
2065,-132.0
2066,-2.0
2067,-26.0
2068,144.0
2069,-2.0
2070,41.0
2071,-38.0
2072,95.0
2073,-37.0
2074,-8.0
2075,-7.0
2076,187.0
2077,51.0
2078,-41.0
2079,-127.0
2080,22.0
2081,-56.0
2082,66.0
2083,78.0
2084,-26.0
2085,-210.0
2086,0.0
2087,-299.0
2088,173.0
2089,-204.0
2090,640.0
2091,-788.0
2092,683.0
2093,-757.0
2094,669.0
2095,-625.0
2096,642.0
2097,-598.0
2098,-51.0
2099,40.0
2100,-49.0
2101,30.0
2102,-27.0
2103,5.0
2104,-17.0
2105,34.0
2106,-55.0
2107,10.0
2108,-51.0
2109,27.0
2110,59.0
2111,29.0
2112,36.0
2113,12.0
2114,15.0
2115,25.0
2116,-22.0
2117,13.0
2118,-54.0
2119,45.0
2120,-29.0
2121,24.0
2122,40.0
2123,78.0
2124,-12.0
2125,49.0
2126,-16.0
2127,35.0
2128,-30.0
2129,55.0
2130,-10.0
2131,55.0
2132,-32.0
2133,38.0
2134,-29.0
2135,34.0
2136,-36.0
2137,50.0
2138,-40.0
2139,46.0
2140,-75.0
2141,106.0
2142,-59.0
2143,77.0
2144,-66.0
2145,28.0
2146,-55.0
2147,86.0
2148,-13.0
2149,38.0
2150,28.0
2151,24.0
2152,98.0
2153,73.0
2154,-51.0
2155,60.0
2156,-62.0
2157,102.0
2158,-86.0
2159,439.0
2160,-358.0
2161,365.0
2162,-446.0
2163,407.0
2164,-333.0
2165,357.0
2166,-314.0
2167,352.0
2168,-435.0
2169,470.0
2170,-402.0
2171,519.0
2172,-506.0
2173,398.0
2174,-439.0
2175,531.0
2176,-481.0
2177,539.0
2178,-492.0
2179,434.0
2180,-648.0
2181,-42.0
2182,61.0
2183,-17.0
2184,31.0
2185,-33.0
2186,51.0
2187,-31.0
2188,73.0
2189,-36.0
2190,45.0
2191,-41.0
2192,52.0
2193,-3.0
2194,18.0
2195,0.0
2196,-13.0
2197,19.0
2198,-50.0
2199,70.0
2200,-58.0
2201,-115.0
2202,58.0
2203,-53.0
2204,54.0
2205,-74.0
2206,107.0
2207,-31.0
2208,53.0
2209,-86.0
2210,146.0
2211,-92.0
2212,100.0
2213,-119.0
2214,139.0
2215,-35.0
2216,12.0
2217,-25.0
2218,50.0
2219,-60.0
2220,64.0
2221,-93.0
2222,50.0
2223,-50.0
2224,39.0
2225,-46.0
2226,46.0
2227,-28.0
2228,39.0
2229,-55.0
2230,81.0
2231,-30.0
2232,77.0
2233,-73.0
2234,80.0
2235,-101.0
2236,106.0
2237,-111.0
2238,108.0
2239,-94.0
2240,108.0
2241,-102.0
2242,142.0
2243,-113.0
2244,121.0
2245,-141.0
2246,130.0
2247,-81.0
2248,102.0
2249,-137.0
2250,82.0
2251,-113.0
2252,68.0
2253,-146.0
2254,107.0
2255,-87.0
2256,214.0
2257,5.0
2258,34.0
2259,-33.0
2260,-51.0
2261,35.0
2262,-51.0
2263,55.0
2264,-35.0
2265,30.0
2266,-22.0
2267,40.0
2268,-18.0
2269,58.0
2270,-72.0
2271,82.0
2272,-37.0
2273,32.0
2274,-13.0
2275,0.0
2276,-7.0
2277,2.0
2278,-7.0
2279,40.0
2280,-38.0
2281,39.0
2282,-41.0
2283,43.0
2284,-8.0
2285,46.0
2286,-35.0
2287,18.0
2288,-19.0
2289,14.0
2290,-15.0
2291,41.0
2292,11.0
2293,26.0
2294,0.0
2295,26.0
2296,-8.0
2297,17.0
2298,-14.0
2299,40.0
2300,-34.0
2301,85.0
2302,-13.0
2303,27.0
2304,10.0
2305,-11.0
2306,-4.0
2307,3.0
2308,-12.0
2309,9.0
2310,-3.0
2311,28.0
2312,-10.0
2313,-9.0
2314,-11.0
2315,26.0
2316,38.0
2317,-27.0
2318,15.0
2319,9.0
2320,9.0
2321,9.0
2322,10.0
2323,-12.0
2324,-6.0
2325,0.0
2326,30.0
2327,10.0
2328,9.0
2329,-9.0
2330,2.0
2331,-9.0
2332,-1.0
2333,2.0
2334,30.0
2335,32.0
2336,7.0
2337,-49.0
2338,30.0
2339,-32.0
2340,108.0
2341,-33.0
2342,50.0
2343,0.0
2344,0.0
2345,-9.0
2346,0.0
2347,-11.0
2348,-12.0
2349,2.0
2350,7.0
2351,-5.0
2352,-39.0
2353,30.0
2354,-26.0
2355,26.0
2356,-28.0
2357,58.0
2358,-12.0
2359,27.0
2360,-21.0
2361,36.0
2362,-53.0
2363,14.0
2364,-54.0
2365,91.0
2366,-38.0
2367,34.0
2368,-47.0
2369,71.0
2370,-137.0
2371,202.0
2372,-183.0
2373,68.0
2374,66.0
2375,-41.0
2376,142.0
2377,-85.0
2378,122.0
2379,-118.0
2380,149.0
2381,-137.0
2382,96.0
2383,-126.0
2384,186.0
2385,-115.0
2386,126.0
2387,16.0
2388,257.0
2389,-215.0
2390,293.0
2391,-168.0
2392,221.0
2393,-202.0
2394,270.0
2395,-217.0
2396,253.0
2397,-229.0
2398,323.0
2399,-151.0
2400,400.0
2401,-206.0
2402,175.0
2403,13.0
2404,223.0
2405,-111.0
2406,195.0
2407,-244.0
2408,529.0
2409,-237.0
2410,186.0
2411,-239.0
2412,308.0
2413,-153.0
2414,268.0
2415,-156.0
2416,186.0
2417,-254.0
2418,458.0
2419,-380.0
2420,526.0
2421,-583.0
2422,529.0
2423,-613.0
2424,723.0
2425,-284.0
2426,650.0
2427,-629.0
2428,562.0
2429,-567.0
2430,717.0
2431,-622.0
2432,785.0
2433,-774.0
2434,835.0
2435,-830.0
2436,941.0
2437,-932.0
2438,-51.0
2439,99.0
2440,-54.0
2441,87.0
2442,-48.0
2443,59.0
2444,-51.0
2445,18.0
2446,-1.0
2447,49.0
2448,-51.0
2449,52.0
2450,-43.0
2451,71.0
2452,-41.0
2453,76.0
2454,-43.0
2455,78.0
2456,-32.0
2457,20.0
2458,-50.0
2459,82.0
2460,-52.0
2461,52.0
2462,-70.0
2463,61.0
2464,-77.0
2465,90.0
2466,34.0
2467,6.0
2468,-5.0
2469,-13.0
2470,-7.0
2471,24.0
2472,0.0
2473,-20.0
2474,109.0
2475,-75.0
2476,81.0
2477,-46.0
2478,106.0
2479,-80.0
2480,40.0
2481,12.0
2482,151.0
2483,-91.0
2484,14.0
2485,-10.0
2486,14.0
2487,8.0
2488,-5.0
2489,3.0
2490,8.0
2491,0.0
2492,16.0
2493,13.0
2494,-12.0
2495,-4.0
2496,16.0
2497,30.0
2498,-9.0
2499,13.0
2500,-30.0
2501,2.0
2502,-21.0
2503,34.0
2504,-12.0
2505,62.0
2506,-26.0
2507,12.0
2508,-26.0
2509,-1.0
2510,0.0
2511,-12.0
2512,9.0
2513,-8.0
2514,0.0
2515,0.0
2516,0.0
2517,29.0
2518,2.0
2519,6.0
2520,0.0
2521,0.0
2522,-5.0
2523,-2.0
2524,5.0
2525,4.0
2526,5.0
2527,4.0
2528,7.0
2529,-3.0
2530,6.0
2531,-24.0
2532,9.0
2533,-8.0
2534,-3.0
2535,-12.0
2536,6.0
2537,-12.0
2538,4.0
2539,0.0
2540,12.0
2541,-7.0
2542,2.0
2543,-5.0
2544,1.0
2545,-12.0
2546,0.0
2547,-5.0
2548,0.0
2549,-8.0
2550,15.0
2551,-3.0
2552,0.0
2553,-17.0
2554,19.0
2555,-16.0
2556,26.0
2557,-15.0
2558,14.0
2559,-13.0
2560,14.0
2561,-23.0
2562,18.0
2563,-12.0
2564,10.0
2565,-11.0
2566,23.0
2567,-19.0
2568,12.0
2569,-11.0
2570,13.0
2571,-11.0
2572,0.0
2573,0.0
2574,22.0
2575,-18.0
2576,16.0
2577,-4.0
2578,-51.0
2579,99.0
2580,-33.0
2581,46.0
2582,-34.0
2583,13.0
2584,-13.0
2585,22.0
2586,-26.0
2587,22.0
2588,-12.0
2589,3.0
2590,-17.0
2591,6.0
2592,4.0
2593,15.0
2594,69.0
2595,71.0
2596,-75.0
2597,94.0
2598,-45.0
2599,104.0
2600,-60.0
2601,55.0
2602,-73.0
2603,99.0
2604,-53.0
2605,59.0
2606,-59.0
2607,74.0
2608,-48.0
2609,75.0
2610,-80.0
2611,140.0
2612,-17.0
2613,52.0
2614,-45.0
2615,53.0
2616,-48.0
2617,15.0
2618,-47.0
2619,33.0
2620,30.0
2621,102.0
2622,-66.0
2623,94.0
2624,-122.0
2625,94.0
2626,-165.0
2627,85.0
2628,-48.0
2629,149.0
2630,-57.0
2631,145.0
2632,-74.0
2633,171.0
2634,-16.0
2635,164.0
2636,37.0
2637,-7.0
2638,-14.0
2639,-5.0
2640,24.0
2641,26.0
2642,-2.0
2643,29.0
2644,-18.0
2645,19.0
2646,21.0
2647,7.0
2648,-12.0
2649,20.0
2650,55.0
2651,0.0
2652,17.0
2653,-32.0
2654,54.0
2655,14.0
2656,2.0
2657,145.0
2658,-109.0
2659,298.0
2660,-246.0
2661,539.0
2662,-230.0
2663,141.0
2664,-46.0
2665,217.0
2666,-150.0
2667,99.0
2668,-139.0
2669,172.0
2670,-111.0
2671,122.0
2672,-136.0
2673,171.0
2674,-140.0
2675,140.0
2676,-138.0
2677,130.0
2678,-144.0
2679,138.0
2680,-228.0
2681,242.0
2682,-190.0
2683,237.0
2684,-10.0
2685,286.0
2686,-281.0
2687,350.0
2688,-325.0
2689,328.0
2690,-333.0
2691,337.0
2692,-320.0
2693,-51.0
2694,40.0
2695,-49.0
2696,30.0
2697,-27.0
2698,5.0
2699,-26.0
2700,34.0
2701,-55.0
2702,10.0
2703,-51.0
2704,27.0
2705,-80.0
2706,69.0
2707,-39.0
2708,61.0
2709,-65.0
2710,109.0
2711,-57.0
2712,45.0
2713,-45.0
2714,75.0
2715,-57.0
2716,84.0
2717,-34.0
2718,78.0
2719,55.0
2720,47.0
2721,0.0
2722,16.0
2723,-44.0
2724,7.0
2725,8.0
2726,-17.0
2727,-56.0
2728,3.0
2729,9.0
2730,47.0
2731,-42.0
2732,52.0
2733,-43.0
2734,-7.0
2735,-11.0
2736,-13.0
2737,83.0
2738,0.0
2739,72.0
2740,-51.0
2741,247.0
2742,-116.0
2743,137.0
2744,-25.0
2745,115.0
2746,-139.0
2747,282.0
2748,-213.0
2749,114.0
2750,-294.0
2751,-71.0
2752,-57.0
2753,191.0
2754,-13.0
2755,26.0
2756,-53.0
2757,28.0
2758,0.0
2759,92.0
2760,9.0
2761,-93.0
2762,-37.0
2763,32.0
2764,-37.0
2765,95.0
2766,-99.0
2767,110.0
2768,25.0
2769,0.0
2770,-87.0
2771,182.0
2772,-135.0
2773,316.0
2774,-118.0
2775,237.0
2776,-196.0
2777,206.0
2778,-184.0
2779,211.0
2780,-198.0
2781,216.0
2782,-174.0
2783,153.0
2784,-153.0
2785,150.0
2786,-135.0
2787,200.0
2788,-199.0
2789,211.0
2790,-203.0
2791,202.0
2792,-233.0
2793,220.0
2794,-169.0
2795,177.0
2796,-214.0
2797,173.0
2798,-192.0
2799,184.0
2800,-152.0
2801,213.0
2802,-131.0
2803,110.0
2804,-123.0
2805,142.0
2806,-143.0
2807,124.0
2808,-241.0
2809,167.0
2810,-150.0
2811,215.0
2812,-41.0
2813,109.0
2814,-107.0
2815,117.0
2816,-80.0
2817,107.0
2818,-157.0
2819,132.0
2820,-171.0
2821,167.0
2822,-163.0
2823,168.0
2824,-386.0
2825,299.0
2826,-209.0
2827,283.0
2828,-333.0
2829,452.0
2830,-437.0
2831,687.0
2832,-681.0
2833,425.0
2834,-676.0
2835,429.0
2836,-706.0
2837,-35.0
2838,31.0
2839,-20.0
2840,143.0
2841,-149.0
2842,1170.0
2843,-1109.0
2844,-54.0
2845,50.0
2846,-49.0
2847,30.0
2848,-12.0
2849,29.0
2850,-13.0
2851,18.0
2852,-27.0
2853,87.0
2854,-39.0
2855,46.0
2856,-36.0
2857,112.0
2858,-37.0
2859,85.0
2860,-119.0
2861,6.0
2862,-58.0
2863,14.0
2864,-12.0
2865,6.0
2866,29.0
2867,18.0
2868,2.0
2869,47.0
2870,-13.0
2871,42.0
2872,-81.0
2873,76.0
2874,-79.0
2875,43.0
2876,-83.0
2877,19.0
2878,-35.0
2879,21.0
2880,0.0
2881,-13.0
2882,-2.0
2883,8.0
2884,-9.0
2885,1.0
2886,0.0
2887,39.0
2888,-22.0
2889,10.0
2890,12.0
2891,-12.0
2892,9.0
2893,41.0
2894,-72.0
2895,114.0
2896,-28.0
2897,59.0
2898,-36.0
2899,72.0
2900,-8.0
2901,5.0
2902,0.0
2903,1.0
2904,4.0
2905,3.0
2906,-3.0
2907,2.0
2908,-3.0
2909,3.0
2910,-2.0
2911,0.0
2912,0.0
2913,2.0
2914,-3.0
2915,-4.0
2916,1.0
2917,0.0
2918,12.0
2919,0.0
2920,0.0
2921,-9.0
2922,-1.0
2923,-8.0
2924,0.0
2925,0.0
2926,9.0
2927,-6.0
2928,3.0
2929,-7.0
2930,-37.0
2931,25.0
2932,-32.0
2933,34.0
2934,-22.0
2935,26.0
2936,10.0
2937,37.0
2938,-20.0
2939,47.0
2940,-16.0
2941,2.0
2942,-21.0
2943,21.0
2944,-14.0
2945,237.0
2946,-65.0
2947,78.0
2948,-108.0
2949,212.0
2950,-123.0
2951,282.0
2952,-242.0
2953,302.0
2954,-266.0
2955,257.0
2956,-303.0
2957,275.0
2958,-257.0
2959,235.0
2960,-375.0
2961,445.0
2962,-431.0
2963,576.0
2964,-445.0
2965,480.0
2966,-531.0
2967,565.0
2968,-567.0
2969,1040.0
2970,-1005.0
2971,1042.0
2972,-1025.0
2973,1038.0
2974,-1010.0
2975,1041.0
2976,-51.0
2977,32.0
2978,-76.0
2979,50.0
2980,-14.0
2981,123.0
2982,-93.0
2983,75.0
2984,-50.0
2985,56.0
2986,-21.0
2987,16.0
2988,-32.0
2989,10.0
2990,-4.0
2991,39.0
2992,-54.0
2993,58.0
2994,-64.0
2995,89.0
2996,-92.0
2997,91.0
2998,-66.0
2999,38.0
3000,-57.0
3001,75.0
3002,-44.0
3003,30.0
3004,-97.0
3005,59.0
3006,-88.0
3007,72.0
3008,-29.0
3009,31.0
3010,-63.0
3011,88.0
3012,-78.0
3013,112.0
3014,-101.0
3015,162.0
3016,-105.0
3017,138.0
3018,-62.0
3019,87.0
3020,-91.0
3021,95.0
3022,-66.0
3023,128.0
3024,-130.0
3025,100.0
3026,-189.0
3027,250.0
3028,-236.0
3029,170.0
3030,-135.0
3031,145.0
3032,-179.0
3033,217.0
3034,-184.0
3035,249.0
3036,-173.0
3037,207.0
3038,-137.0
3039,159.0
3040,-137.0
3041,136.0
3042,-151.0
3043,137.0
3044,-175.0
3045,154.0
3046,-144.0
3047,140.0
3048,-129.0
3049,134.0
3050,-95.0
3051,124.0
3052,-133.0
3053,231.0
3054,-82.0
3055,83.0
3056,-99.0
3057,55.0
3058,-89.0
3059,105.0
3060,-63.0
3061,93.0
3062,-101.0
3063,132.0
3064,-116.0
3065,109.0
3066,-121.0
3067,91.0
3068,-131.0
3069,209.0
3070,-300.0
3071,213.0
3072,-311.0
3073,212.0
3074,-322.0
3075,243.0
3076,-264.0
3077,224.0
3078,-279.0
3079,307.0
3080,-300.0
3081,348.0
3082,-348.0
3083,325.0
3084,-337.0
3085,355.0
3086,-414.0
3087,432.0
3088,-482.0
3089,464.0
3090,-506.0
3091,506.0
3092,-469.0
3093,470.0
3094,-492.0
3095,425.0
3096,-462.0
3097,430.0
3098,-481.0
3099,451.0
3100,-450.0
3101,423.0
3102,-317.0
3103,332.0
3104,-325.0
3105,371.0
3106,-340.0
3107,-51.0
3108,32.0
3109,-49.0
3110,32.0
3111,-24.0
3112,1.0
3113,-26.0
3114,16.0
3115,-84.0
3116,-35.0
3117,-94.0
3118,44.0
3119,-22.0
3120,-24.0
3121,-39.0
3122,33.0
3123,-6.0
3124,12.0
3125,-11.0
3126,15.0
3127,-30.0
3128,20.0
3129,39.0
3130,-9.0
3131,-14.0
3132,152.0
3133,-143.0
3134,79.0
3135,-81.0
3136,85.0
3137,-37.0
3138,88.0
3139,-15.0
3140,57.0
3141,-85.0
3142,-56.0
3143,93.0
3144,-112.0
3145,168.0
3146,-132.0
3147,153.0
3148,-159.0
3149,159.0
3150,-108.0
3151,138.0
3152,-147.0
3153,358.0
3154,-285.0
3155,226.0
3156,-245.0
3157,238.0
3158,-238.0
3159,151.0
3160,-247.0
3161,184.0
3162,-179.0
3163,135.0
3164,-82.0
3165,254.0
3166,-85.0
3167,156.0
3168,-107.0
3169,91.0
3170,-104.0
3171,94.0
3172,-67.0
3173,110.0
3174,-74.0
3175,103.0
3176,-51.0
3177,182.0
3178,-124.0
3179,170.0
3180,-106.0
3181,184.0
3182,-158.0
3183,134.0
3184,-51.0
3185,187.0
3186,-135.0
3187,-12.0
3188,-190.0
3189,263.0
3190,-256.0
3191,202.0
3192,-276.0
3193,172.0
3194,-176.0
3195,177.0
3196,-130.0
3197,168.0
3198,-133.0
3199,156.0
3200,-35.0
3201,72.0
3202,-116.0
3203,121.0
3204,-154.0
3205,193.0
3206,-105.0
3207,63.0
3208,-94.0
3209,115.0
3210,-98.0
3211,77.0
3212,-39.0
3213,180.0
3214,-206.0
3215,85.0
3216,-178.0
3217,274.0
3218,-409.0
3219,706.0
3220,-44.0
3221,662.0
3222,-93.0
3223,-37.0
3224,18.0
3225,-10.0
3226,6.0
3227,8.0
3228,96.0
3229,0.0
3230,21.0
3231,57.0
3232,-17.0
3233,163.0
3234,69.0
3235,-63.0
3236,50.0
3237,-74.0
3238,87.0
3239,-34.0
3240,93.0
3241,-22.0
3242,40.0
3243,50.0
3244,38.0
3245,45.0
3246,5.0
3247,-25.0
3248,36.0
3249,-50.0
3250,118.0
3251,119.0
3252,-66.0
3253,80.0
3254,-100.0
3255,227.0
3256,-35.0
3257,100.0
3258,32.0
3259,360.0
3260,51.0
3261,-77.0
3262,107.0
3263,-95.0
3264,117.0
3265,0.0
3266,100.0
3267,-89.0
3268,117.0
3269,-72.0
3270,121.0
3271,-83.0
3272,151.0
3273,-74.0
3274,90.0
3275,-110.0
3276,82.0
3277,-53.0
3278,32.0
3279,15.0
3280,105.0
3281,4.0
3282,188.0
3283,191.0
3284,-115.0
3285,209.0
3286,-152.0
3287,225.0
3288,-107.0
3289,558.0
3290,-89.0
3291,27.0
3292,135.0
3293,1041.0
3294,-846.0
3295,-51.0
3296,35.0
3297,-51.0
3298,26.0
3299,-35.0
3300,35.0
3301,-61.0
3302,33.0
3303,51.0
3304,72.0
3305,-61.0
3306,25.0
3307,-14.0
3308,37.0
3309,3.0
3310,137.0
3311,-78.0
3312,125.0
3313,48.0
3314,87.0
3315,-40.0
3316,51.0
3317,-4.0
3318,44.0
3319,-35.0
3320,133.0
3321,-78.0
3322,124.0
3323,4.0
3324,36.0
3325,-61.0
3326,244.0
3327,-47.0
3328,88.0
3329,-52.0
3330,61.0
3331,-47.0
3332,62.0
3333,-53.0
3334,24.0
3335,-23.0
3336,52.0
3337,-20.0
3338,92.0
3339,13.0
3340,-1.0
3341,6.0
3342,-13.0
3343,-5.0
3344,-17.0
3345,31.0
3346,-83.0
3347,61.0
3348,-12.0
3349,43.0
3350,-74.0
3351,67.0
3352,-100.0
3353,160.0
3354,-180.0
3355,72.0
3356,-386.0
3357,134.0
3358,-119.0
3359,48.0
3360,-179.0
3361,-37.0
3362,25.0
3363,-32.0
3364,34.0
3365,-17.0
3366,58.0
3367,-22.0
3368,11.0
3369,-56.0
3370,52.0
3371,-30.0
3372,34.0
3373,-37.0
3374,38.0
3375,10.0
3376,27.0
3377,30.0
3378,4.0
3379,0.0
3380,-8.0
3381,35.0
3382,49.0
3383,-107.0
3384,142.0
3385,-150.0
3386,132.0
3387,-112.0
3388,117.0
3389,-61.0
3390,121.0
3391,-24.0
3392,112.0
3393,-126.0
3394,34.0
3395,-48.0
3396,106.0
3397,-75.0
3398,121.0
3399,-68.0
3400,90.0
3401,-90.0
3402,116.0
3403,-128.0
3404,279.0
3405,-176.0
3406,168.0
3407,-71.0
3408,75.0
3409,-42.0
3410,89.0
3411,-52.0
3412,24.0
3413,62.0
3414,-67.0
3415,142.0
3416,-156.0
3417,124.0
3418,-78.0
3419,89.0
3420,-98.0
3421,249.0
3422,-51.0
3423,144.0
3424,-167.0
3425,415.0
3426,-340.0
3427,437.0
3428,-444.0
3429,455.0
3430,-471.0
3431,462.0
3432,-484.0
3433,-37.0
3434,34.0
3435,-32.0
3436,65.0
3437,-51.0
3438,55.0
3439,-39.0
3440,19.0
3441,-46.0
3442,21.0
3443,-2.0
3444,28.0
3445,-25.0
3446,37.0
3447,-7.0
3448,13.0
3449,-13.0
3450,7.0
3451,-30.0
3452,11.0
3453,16.0
3454,15.0
3455,0.0
3456,2.0
3457,-9.0
3458,-6.0
3459,-3.0
3460,17.0
3461,18.0
3462,8.0
3463,9.0
3464,12.0
3465,14.0
3466,35.0
3467,55.0
3468,8.0
3469,6.0
3470,22.0
3471,-2.0
3472,16.0
3473,-51.0
3474,25.0
3475,-47.0
3476,30.0
3477,-48.0
3478,28.0
3479,-105.0
3480,94.0
3481,-38.0
3482,91.0
3483,-44.0
3484,88.0
3485,-20.0
3486,16.0
3487,-48.0
3488,50.0
3489,-15.0
3490,7.0
3491,-32.0
3492,9.0
3493,-29.0
3494,23.0
3495,-17.0
3496,24.0
3497,-17.0
3498,16.0
3499,-3.0
3500,12.0
3501,-8.0
3502,10.0
3503,1.0
3504,13.0
3505,-9.0
3506,4.0
3507,-9.0
3508,13.0
3509,-9.0
3510,2.0
3511,-39.0
3512,50.0
3513,-36.0
3514,54.0
3515,-52.0
3516,105.0
3517,-98.0
3518,61.0
3519,-40.0
3520,41.0
3521,-59.0
3522,36.0
3523,-13.0
3524,47.0
3525,-77.0
3526,129.0
3527,-83.0
3528,83.0
3529,-36.0
3530,52.0
3531,-30.0
3532,111.0
3533,0.0
3534,250.0
3535,-45.0
3536,82.0
3537,0.0
3538,144.0
3539,-71.0
3540,46.0
3541,3.0
3542,0.0
3543,5.0
3544,-30.0
3545,-30.0
3546,171.0
3547,311.0
3548,-272.0
3549,18.0
3550,-59.0
3551,207.0
3552,7.0
3553,205.0
3554,-203.0
3555,48.0
3556,26.0
3557,261.0
3558,-115.0
3559,125.0
3560,-182.0
3561,-14.0
3562,104.0
3563,-13.0
3564,149.0
3565,-107.0
3566,190.0
3567,-112.0
3568,135.0
3569,-137.0
3570,59.0
3571,-56.0
3572,74.0
3573,-65.0
3574,88.0
3575,-68.0
3576,100.0
3577,-93.0
3578,102.0
3579,-34.0
3580,35.0
3581,-45.0
3582,35.0
3583,-18.0
3584,22.0
3585,-23.0
3586,21.0
3587,-17.0
3588,44.0
3589,-19.0
3590,32.0
3591,25.0
3592,-19.0
3593,-2.0
3594,15.0
3595,-12.0
3596,75.0
3597,-44.0
3598,75.0
3599,1.0
3600,66.0
3601,-12.0
3602,68.0
3603,-59.0
3604,50.0
3605,-61.0
3606,125.0
3607,-18.0
3608,80.0
3609,-4.0
3610,37.0
3611,5.0
3612,19.0
3613,-8.0
3614,0.0
3615,13.0
3616,0.0
3617,-9.0
3618,-9.0
3619,11.0
3620,0.0
3621,-1.0
3622,8.0
3623,-5.0
3624,-12.0
3625,12.0
3626,-12.0
3627,0.0
3628,-51.0
3629,48.0
3630,-76.0
3631,50.0
3632,-13.0
3633,62.0
3634,-16.0
3635,159.0
3636,-100.0
3637,94.0
3638,-88.0
3639,47.0
3640,-36.0
3641,25.0
3642,-41.0
3643,37.0
3644,-43.0
3645,56.0
3646,-8.0
3647,43.0
3648,-8.0
3649,102.0
3650,91.0
3651,-68.0
3652,193.0
3653,-80.0
3654,207.0
3655,9.0
3656,251.0
3657,-195.0
3658,207.0
3659,-152.0
3660,129.0
3661,-80.0
3662,-9.0
3663,-92.0
3664,153.0
3665,-5.0
3666,50.0
3667,-30.0
3668,85.0
3669,-195.0
3670,168.0
3671,-116.0
3672,71.0
3673,-17.0
3674,178.0
3675,-50.0
3676,80.0
3677,-41.0
3678,42.0
3679,237.0
3680,127.0
3681,142.0
3682,88.0
3683,-68.0
3684,68.0
3685,-67.0
3686,103.0
3687,-116.0
3688,-36.0
3689,-25.0
3690,69.0
3691,-44.0
3692,76.0
3693,-28.0
3694,41.0
3695,-14.0
3696,79.0
3697,-38.0
3698,215.0
3699,-68.0
3700,66.0
3701,-77.0
3702,104.0
3703,5.0
3704,33.0
3705,-61.0
3706,63.0
3707,70.0
3708,-41.0
3709,154.0
3710,-70.0
3711,97.0
3712,-53.0
3713,266.0
3714,-135.0
3715,239.0
3716,-87.0
3717,-35.0
3718,-51.0
3719,479.0
3720,-265.0
3721,454.0
3722,46.0
3723,-129.0
3724,68.0
3725,-160.0
3726,94.0
3727,-104.0
3728,102.0
3729,-199.0
3730,59.0
3731,-132.0
3732,106.0
3733,-74.0
3734,75.0
3735,-155.0
3736,144.0
3737,-104.0
3738,0.0
3739,-114.0
3740,0.0
3741,0.0
3742,0.0
3743,0.0
3744,0.0
3745,0.0
3746,0.0
3747,0.0
3748,0.0
3749,0.0
3750,0.0
3751,0.0
3752,-37.0
3753,18.0
3754,-10.0
3755,30.0
3756,-5.0
3757,8.0
3758,-10.0
3759,28.0
3760,11.0
3761,105.0
3762,34.0
3763,31.0
3764,0.0
3765,50.0
3766,20.0
3767,77.0
3768,-70.0
3769,2.0
3770,-28.0
3771,-17.0
3772,37.0
3773,29.0
3774,51.0
3775,111.0
3776,25.0
3777,201.0
3778,47.0
3779,-31.0
3780,323.0
3781,-244.0
3782,274.0
3783,-286.0
3784,356.0
3785,-198.0
3786,358.0
3787,-313.0
3788,288.0
3789,-296.0
3790,384.0
3791,-364.0
3792,289.0
3793,-279.0
3794,513.0
3795,-307.0
3796,357.0
3797,-73.0
3798,419.0
3799,-239.0
3800,588.0
3801,-267.0
3802,355.0
3803,-270.0
3804,550.0
3805,-284.0
3806,450.0
3807,-543.0
3808,416.0
3809,-13.0
3810,138.0
3811,-88.0
3812,401.0
3813,-237.0
3814,558.0
3815,-155.0
3816,340.0
3817,-145.0
3818,78.0
3819,-118.0
3820,325.0
3821,-394.0
3822,801.0
3823,-313.0
3824,335.0
3825,-266.0
3826,248.0
3827,-169.0
3828,282.0
3829,-325.0
3830,667.0
3831,-603.0
3832,648.0
3833,-591.0
3834,-37.0
3835,34.0
3836,-32.0
3837,65.0
3838,-100.0
3839,87.0
3840,-71.0
3841,80.0
3842,-81.0
3843,120.0
3844,-63.0
3845,100.0
3846,-90.0
3847,70.0
3848,-43.0
3849,67.0
3850,-69.0
3851,77.0
3852,-71.0
3853,22.0
3854,-36.0
3855,13.0
3856,-54.0
3857,17.0
3858,-22.0
3859,133.0
3860,-78.0
3861,126.0
3862,-109.0
3863,134.0
3864,-87.0
3865,161.0
3866,-6.0
3867,128.0
3868,-67.0
3869,171.0
3870,-124.0
3871,148.0
3872,-42.0
3873,-17.0
3874,216.0
3875,-118.0
3876,0.0
3877,18.0
3878,-63.0
3879,61.0
3880,-102.0
3881,215.0
3882,-146.0
3883,138.0
3884,-50.0
3885,166.0
3886,-70.0
3887,178.0
3888,-189.0
3889,259.0
3890,-159.0
3891,317.0
3892,-215.0
3893,158.0
3894,-197.0
3895,289.0
3896,-323.0
3897,386.0
3898,-297.0
3899,321.0
3900,-349.0
3901,325.0
3902,-274.0
3903,296.0
3904,-325.0
3905,314.0
3906,-286.0
3907,286.0
3908,-363.0
3909,271.0
3910,-201.0
3911,325.0
3912,-204.0
3913,-51.0
3914,40.0
3915,-49.0
3916,30.0
3917,-27.0
3918,12.0
3919,-15.0
3920,34.0
3921,-55.0
3922,10.0
3923,-51.0
3924,27.0
3925,-80.0
3926,84.0
3927,-34.0
3928,93.0
3929,-92.0
3930,72.0
3931,-5.0
3932,82.0
3933,-36.0
3934,130.0
3935,-48.0
3936,135.0
3937,-62.0
3938,82.0
3939,101.0
3940,100.0
3941,-25.0
3942,25.0
3943,-305.0
3944,-13.0
3945,-79.0
3946,319.0
3947,-143.0
3948,463.0
3949,-323.0
3950,317.0
3951,-351.0
3952,101.0
3953,-134.0
3954,313.0
3955,-350.0
3956,382.0
3957,-315.0
3958,357.0
3959,-301.0
3960,314.0
3961,-356.0
3962,404.0
3963,-332.0
3964,425.0
3965,-451.0
3966,366.0
3967,-354.0
3968,375.0
3969,-404.0
3970,424.0
3971,-408.0
3972,370.0
3973,-264.0
3974,365.0
3975,-311.0
3976,348.0
3977,-341.0
3978,609.0
3979,-317.0
3980,618.0
3981,-601.0
3982,435.0
3983,-386.0
3984,363.0
3985,-398.0
3986,604.0
3987,-619.0
3988,430.0
3989,-366.0
3990,386.0
3991,-359.0
3992,612.0
3993,-582.0
3994,378.0
3995,-334.0
3996,367.0
3997,-332.0
3998,348.0
3999,-325.0
4000,334.0
4001,-317.0
4002,348.0
4003,-329.0
4004,333.0
4005,-341.0
4006,355.0
4007,-333.0
4008,400.0
4009,-436.0
4010,492.0
4011,-571.0
4012,-51.0
4013,40.0
4014,-49.0
4015,57.0
4016,-42.0
4017,81.0
4018,-87.0
4019,89.0
4020,-63.0
4021,107.0
4022,-54.0
4023,106.0
4024,-44.0
4025,66.0
4026,-14.0
4027,35.0
4028,-29.0
4029,47.0
4030,86.0
4031,72.0
4032,-79.0
4033,69.0
4034,-48.0
4035,27.0
4036,18.0
4037,-12.0
4038,71.0
4039,-129.0
4040,-1.0
4041,-34.0
4042,79.0
4043,-11.0
4044,13.0
4045,24.0
4046,24.0
4047,-17.0
4048,16.0
4049,18.0
4050,7.0
4051,2.0
4052,68.0
4053,53.0
4054,17.0
4055,-28.0
4056,66.0
4057,-77.0
4058,70.0
4059,-36.0
4060,81.0
4061,-41.0
4062,15.0
4063,-35.0
4064,39.0
4065,-45.0
4066,62.0
4067,-53.0
4068,78.0
4069,-50.0
4070,141.0
4071,-110.0
4072,110.0
4073,-155.0
4074,148.0
4075,-147.0
4076,210.0
4077,-126.0
4078,204.0
4079,-93.0
4080,219.0
4081,-143.0
4082,180.0
4083,-38.0
4084,159.0
4085,-27.0
4086,15.0
4087,-92.0
4088,85.0
4089,-17.0
4090,57.0
4091,0.0
4092,137.0
4093,-341.0
4094,348.0
4095,-316.0
4096,350.0
4097,-173.0
4098,256.0
4099,-231.0
4100,375.0
4101,-240.0
4102,422.0
4103,-255.0
4104,231.0
4105,-221.0
4106,201.0
4107,-241.0
4108,309.0
4109,-443.0
4110,450.0
4111,-438.0
4112,-46.0
4113,35.0
4114,-51.0
4115,44.0
4116,-27.0
4117,21.0
4118,-7.0
4119,15.0
4120,21.0
4121,29.0
4122,-9.0
4123,22.0
4124,0.0
4125,37.0
4126,6.0
4127,-19.0
4128,24.0
4129,26.0
4130,25.0
4131,7.0
4132,8.0
4133,-1.0
4134,12.0
4135,-21.0
4136,10.0
4137,-1.0
4138,-53.0
4139,28.0
4140,-14.0
4141,63.0
4142,-33.0
4143,33.0
4144,-35.0
4145,43.0
4146,-81.0
4147,73.0
4148,-24.0
4149,25.0
4150,0.0
4151,-9.0
4152,0.0
4153,10.0
4154,59.0
4155,-3.0
4156,21.0
4157,-38.0
4158,107.0
4159,0.0
4160,66.0
4161,-23.0
4162,39.0
4163,-25.0
4164,12.0
4165,61.0
4166,-9.0
4167,8.0
4168,0.0
4169,59.0
4170,-14.0
4171,69.0
4172,-30.0
4173,64.0
4174,-70.0
4175,62.0
4176,-73.0
4177,51.0
4178,-25.0
4179,17.0
4180,-20.0
4181,79.0
4182,-43.0
4183,52.0
4184,-96.0
4185,113.0
4186,-20.0
4187,22.0
4188,-53.0
4189,47.0
4190,-85.0
4191,1.0
4192,-67.0
4193,39.0
4194,-85.0
4195,114.0
4196,-140.0
4197,218.0
4198,-162.0
4199,185.0
4200,-206.0
4201,215.0
4202,-263.0
4203,443.0
4204,-218.0
4205,259.0
4206,-201.0
4207,220.0
4208,-214.0
4209,147.0
4210,-195.0
4211,207.0
4212,-75.0
4213,94.0
4214,-132.0
4215,133.0
4216,-46.0
4217,35.0
4218,-42.0
4219,42.0
4220,-40.0
4221,38.0
4222,-23.0
4223,18.0
4224,-58.0
4225,34.0
4226,-22.0
4227,68.0
4228,-45.0
4229,22.0
4230,-17.0
4231,76.0
4232,-67.0
4233,111.0
4234,-92.0
4235,30.0
4236,-18.0
4237,137.0
4238,-21.0
4239,28.0
4240,-17.0
4241,50.0
4242,-26.0
4243,21.0
4244,-11.0
4245,34.0
4246,-17.0
4247,15.0
4248,-26.0
4249,16.0
4250,-11.0
4251,4.0
4252,0.0
4253,8.0
4254,-12.0
4255,15.0
4256,-8.0
4257,13.0
4258,0.0
4259,0.0
4260,-8.0
4261,42.0
4262,-12.0
4263,0.0
4264,-54.0
4265,35.0
4266,-51.0
4267,26.0
4268,-53.0
4269,43.0
4270,37.0
4271,37.0
4272,-2.0
4273,22.0
4274,-23.0
4275,7.0
4276,-44.0
4277,12.0
4278,13.0
4279,40.0
4280,23.0
4281,80.0
4282,-45.0
4283,115.0
4284,-27.0
4285,98.0
4286,-145.0
4287,114.0
4288,-92.0
4289,71.0
4290,-10.0
4291,111.0
4292,288.0
4293,39.0
4294,-144.0
4295,104.0
4296,-120.0
4297,59.0
4298,-136.0
4299,55.0
4300,-86.0
4301,248.0
4302,-50.0
4303,53.0
4304,-35.0
4305,34.0
4306,-20.0
4307,28.0
4308,-9.0
4309,32.0
4310,0.0
4311,29.0
4312,-8.0
4313,20.0
4314,-24.0
4315,34.0
4316,-77.0
4317,90.0
4318,9.0
4319,62.0
4320,-58.0
4321,49.0
4322,-77.0
4323,44.0
4324,-34.0
4325,66.0
4326,-63.0
4327,81.0
4328,-29.0
4329,71.0
4330,-40.0
4331,57.0
4332,-33.0
4333,34.0
4334,-35.0
4335,105.0
4336,-32.0
4337,10.0
4338,-5.0
4339,137.0
4340,-49.0
4341,78.0
4342,-17.0
4343,56.0
4344,-39.0
4345,154.0
4346,-113.0
4347,113.0
4348,-76.0
4349,87.0
4350,-137.0
4351,98.0
4352,-91.0
4353,97.0
4354,-47.0
4355,22.0
4356,-41.0
4357,49.0
4358,42.0
4359,-16.0
4360,15.0
4361,-37.0
4362,93.0
4363,-21.0
4364,97.0
4365,-35.0
4366,75.0
4367,-94.0
4368,67.0
4369,-90.0
4370,13.0
4371,-39.0
4372,54.0
4373,-34.0
4374,34.0
4375,-12.0
4376,200.0
4377,-15.0
4378,-35.0
4379,31.0
4380,-16.0
4381,16.0
4382,-32.0
4383,11.0
4384,-27.0
4385,49.0
4386,-46.0
4387,24.0
4388,-26.0
4389,96.0
4390,75.0
4391,46.0
4392,-54.0
4393,14.0
4394,-49.0
4395,96.0
4396,-63.0
4397,54.0
4398,-38.0
4399,48.0
4400,-43.0
4401,120.0
4402,-46.0
4403,109.0
4404,22.0
4405,300.0
4406,-238.0
4407,272.0
4408,-264.0
4409,283.0
4410,-243.0
4411,294.0
4412,-485.0
4413,470.0
4414,-463.0
4415,524.0
4416,-450.0
4417,475.0
4418,-440.0
4419,194.0
4420,-491.0
4421,489.0
4422,-488.0
4423,494.0
4424,-471.0
4425,525.0
4426,-498.0
4427,478.0
4428,-408.0
4429,464.0
4430,-405.0
4431,472.0
4432,-402.0
4433,417.0
4434,-468.0
4435,413.0
4436,-451.0
4437,486.0
4438,-420.0
4439,438.0
4440,-344.0
4441,432.0
4442,-386.0
4443,622.0
4444,-409.0
4445,439.0
4446,-393.0
4447,498.0
4448,-468.0
4449,594.0
4450,-544.0
4451,782.0
4452,-569.0
4453,642.0
4454,-598.0
4455,762.0
4456,-572.0
4457,777.0
4458,-781.0
4459,882.0
4460,-788.0
4461,1282.0
4462,-1305.0
4463,1108.0
4464,-1235.0
4465,-51.0
4466,35.0
4467,-51.0
4468,26.0
4469,-53.0
4470,56.0
4471,-37.0
4472,16.0
4473,-17.0
4474,38.0
4475,-35.0
4476,68.0
4477,-17.0
4478,16.0
4479,-6.0
4480,54.0
4481,-50.0
4482,38.0
4483,-53.0
4484,102.0
4485,-40.0
4486,57.0
4487,-63.0
4488,65.0
4489,-24.0
4490,26.0
4491,0.0
4492,10.0
4493,-23.0
4494,-6.0
4495,25.0
4496,37.0
4497,-37.0
4498,5.0
4499,-42.0
4500,34.0
4501,41.0
4502,59.0
4503,-101.0
4504,73.0
4505,-58.0
4506,88.0
4507,-50.0
4508,97.0
4509,-171.0
4510,167.0
4511,-52.0
4512,94.0
4513,-94.0
4514,198.0
4515,-40.0
4516,194.0
4517,-43.0
4518,123.0
4519,0.0
4520,63.0
4521,1.0
4522,-8.0
4523,37.0
4524,174.0
4525,-61.0
4526,236.0
4527,-265.0
4528,192.0
4529,-425.0
4530,351.0
4531,-70.0
4532,453.0
4533,-241.0
4534,296.0
4535,-290.0
4536,139.0
4537,-161.0
4538,2.0
4539,-1.0
4540,-54.0
4541,40.0
4542,-49.0
4543,48.0
4544,0.0
4545,86.0
4546,-21.0
4547,85.0
4548,-34.0
4549,49.0
4550,-17.0
4551,22.0
4552,-16.0
4553,55.0
4554,-63.0
4555,62.0
4556,-35.0
4557,63.0
4558,-57.0
4559,72.0
4560,-81.0
4561,163.0
4562,-107.0
4563,112.0
4564,-164.0
4565,210.0
4566,-188.0
4567,148.0
4568,-113.0
4569,411.0
4570,-454.0
4571,220.0
4572,-347.0
4573,288.0
4574,-407.0
4575,441.0
4576,-187.0
4577,241.0
4578,-227.0
4579,128.0
4580,-181.0
4581,165.0
4582,-50.0
4583,198.0
4584,-35.0
4585,167.0
4586,-152.0
4587,140.0
4588,-62.0
4589,66.0
4590,120.0
4591,0.0
4592,0.0
4593,0.0
4594,0.0
4595,0.0
4596,0.0
4597,16.0
4598,61.0
4599,0.0
4600,58.0
4601,0.0
4602,0.0
4603,-29.0
4604,41.0
4605,-36.0
4606,32.0
4607,-27.0
4608,13.0
4609,-36.0
4610,48.0
4611,-27.0
4612,35.0
4613,-23.0
4614,20.0
4615,-10.0
4616,12.0
4617,-34.0
4618,59.0
4619,0.0
4620,6.0
4621,-20.0
4622,51.0
4623,-31.0
4624,43.0
4625,-42.0
4626,67.0
4627,-26.0
4628,59.0
4629,-82.0
4630,56.0
4631,-47.0
4632,54.0
4633,-65.0
4634,43.0
4635,-82.0
4636,77.0
4637,-82.0
4638,151.0
4639,-48.0
4640,43.0
4641,-25.0
4642,86.0
4643,-49.0
4644,46.0
4645,-31.0
4646,94.0
4647,-122.0
4648,125.0
4649,-53.0
4650,43.0
4651,-80.0
4652,12.0
4653,-13.0
4654,86.0
4655,-28.0
4656,85.0
4657,-69.0
4658,132.0
4659,-137.0
4660,63.0
4661,-84.0
4662,61.0
4663,-82.0
4664,37.0
4665,-40.0
4666,436.0
4667,-140.0
4668,125.0
4669,-68.0
4670,90.0
4671,-32.0
4672,88.0
4673,-88.0
4674,65.0
4675,-71.0
4676,65.0
4677,-30.0
4678,86.0
4679,-72.0
4680,128.0
4681,-125.0
4682,100.0
4683,-111.0
4684,117.0
4685,-119.0
4686,117.0
4687,-58.0
4688,97.0
4689,-117.0
4690,100.0
4691,-71.0
4692,109.0
4693,-63.0
4694,34.0
4695,-101.0
4696,209.0
4697,-180.0
4698,104.0
4699,-79.0
4700,128.0
4701,-62.0
4702,96.0
4703,-12.0
4704,198.0
4705,-284.0
4706,385.0
4707,-235.0
4708,380.0
4709,-335.0
4710,354.0
4711,-319.0
4712,334.0
4713,-299.0
4714,319.0
4715,-361.0
4716,329.0
4717,-335.0
4718,285.0
4719,-85.0
4720,219.0
4721,-236.0
4722,256.0
4723,-179.0
4724,125.0
4725,-161.0
4726,196.0
4727,-96.0
4728,86.0
4729,-88.0
4730,90.0
4731,-226.0
4732,144.0
4733,-166.0
4734,256.0
4735,-326.0
4736,-51.0
4737,23.0
4738,-51.0
4739,55.0
4740,-35.0
4741,35.0
4742,-61.0
4743,33.0
4744,51.0
4745,72.0
4746,-61.0
4747,25.0
4748,-14.0
4749,47.0
4750,-67.0
4751,67.0
4752,-58.0
4753,46.0
4754,-17.0
4755,73.0
4756,-39.0
4757,53.0
4758,-26.0
4759,65.0
4760,-55.0
4761,30.0
4762,-57.0
4763,60.0
4764,-50.0
4765,56.0
4766,28.0
4767,-26.0
4768,76.0
4769,5.0
4770,-13.0
4771,-41.0
4772,4.0
4773,-27.0
4774,9.0
4775,-70.0
4776,76.0
4777,1.0
4778,64.0
4779,31.0
4780,-55.0
4781,21.0
4782,-7.0
4783,44.0
4784,-27.0
4785,35.0
4786,-21.0
4787,48.0
4788,-41.0
4789,69.0
4790,-86.0
4791,40.0
4792,-45.0
4793,46.0
4794,-68.0
4795,33.0
4796,-10.0
4797,69.0
4798,38.0
4799,22.0
4800,53.0
4801,-130.0
4802,24.0
4803,50.0
4804,-23.0
4805,20.0
4806,-24.0
4807,29.0
4808,-27.0
4809,17.0
4810,-6.0
4811,0.0
4812,0.0
4813,0.0
4814,0.0
4815,0.0
4816,0.0
4817,6.0
4818,-12.0
4819,10.0
4820,89.0
4821,31.0
4822,-14.0
4823,0.0
4824,-3.0
4825,5.0
4826,-11.0
4827,0.0
4828,-11.0
4829,0.0
4830,0.0
4831,0.0
4832,0.0
4833,3.0
4834,-21.0
4835,13.0
4836,-37.0
4837,25.0
4838,-26.0
4839,53.0
4840,-12.0
4841,22.0
4842,-15.0
4843,13.0
4844,0.0
4845,31.0
4846,-2.0
4847,46.0
4848,-16.0
4849,42.0
4850,-45.0
4851,57.0
4852,138.0
4853,35.0
4854,22.0
4855,48.0
4856,-70.0
4857,70.0
4858,60.0
4859,72.0
4860,-178.0
4861,270.0
4862,-322.0
4863,171.0
4864,11.0
4865,178.0
4866,-25.0
4867,5.0
4868,-25.0
4869,66.0
4870,-34.0
4871,1.0
4872,62.0
4873,40.0
4874,-12.0
4875,-7.0
4876,61.0
4877,-27.0
4878,-41.0
4879,59.0
4880,-37.0
4881,59.0
4882,-21.0
4883,15.0
4884,-32.0
4885,28.0
4886,24.0
4887,166.0
4888,-59.0
4889,115.0
4890,-42.0
4891,25.0
4892,-49.0
4893,53.0
4894,-23.0
4895,70.0
4896,-50.0
4897,48.0
4898,-45.0
4899,118.0
4900,-41.0
4901,88.0
4902,-74.0
4903,78.0
4904,-83.0
4905,120.0
4906,-25.0
4907,179.0
4908,-65.0
4909,55.0
4910,-133.0
4911,109.0
4912,-51.0
4913,67.0
4914,-100.0
4915,155.0
4916,-132.0
4917,265.0
4918,-242.0
4919,299.0
4920,-152.0
4921,305.0
4922,-185.0
4923,311.0
4924,-131.0
4925,177.0
4926,-213.0
4927,300.0
4928,-195.0
4929,262.0
4930,-162.0
4931,221.0
4932,-281.0
4933,192.0
4934,-285.0
4935,177.0
4936,-294.0
4937,356.0
4938,-311.0
4939,311.0
4940,-160.0
4941,333.0
4942,-255.0
4943,261.0
4944,-231.0
4945,278.0
4946,-301.0
4947,-51.0
4948,23.0
4949,-51.0
4950,55.0
4951,-27.0
4952,21.0
4953,25.0
4954,58.0
4955,9.0
4956,39.0
4957,41.0
4958,5.0
4959,-30.0
4960,16.0
4961,-20.0
4962,-6.0
4963,0.0
4964,18.0
4965,37.0
4966,-5.0
4967,0.0
4968,-2.0
4969,10.0
4970,39.0
4971,0.0
4972,15.0
4973,-22.0
4974,44.0
4975,-25.0
4976,0.0
4977,-19.0
4978,15.0
4979,-30.0
4980,-1.0
4981,-19.0
4982,17.0
4983,-79.0
4984,111.0
4985,-72.0
4986,53.0
4987,-1.0
4988,-105.0
4989,14.0
4990,5.0
4991,48.0
4992,-29.0
4993,188.0
4994,-74.0
4995,224.0
4996,-220.0
4997,342.0
4998,-148.0
4999,328.0
5000,-343.0
5001,242.0
5002,-255.0
5003,316.0
5004,-178.0
5005,173.0
5006,-231.0
5007,168.0
5008,-141.0
5009,213.0
5010,-185.0
5011,173.0
5012,-82.0
5013,82.0
5014,-194.0
5015,112.0
5016,-166.0
5017,189.0
5018,-250.0
5019,158.0
5020,-287.0
5021,194.0
5022,-84.0
5023,111.0
5024,-132.0
5025,85.0
5026,-48.0
5027,197.0
5028,-235.0
5029,212.0
5030,-139.0
5031,240.0
5032,-243.0
5033,239.0
5034,-100.0
5035,150.0
5036,-69.0
5037,82.0
5038,-66.0
5039,44.0
5040,-32.0
5041,153.0
5042,-94.0
5043,154.0
5044,-85.0
5045,135.0
5046,-68.0
5047,63.0
5048,-97.0
5049,85.0
5050,-97.0
5051,49.0
5052,2.0
5053,52.0
5054,2.0
5055,94.0
5056,-8.0
5057,47.0
5058,-12.0
5059,12.0
5060,-8.0
5061,-51.0
5062,40.0
5063,-49.0
5064,30.0
5065,-12.0
5066,33.0
5067,-4.0
5068,9.0
5069,-9.0
5070,-5.0
5071,8.0
5072,-19.0
5073,37.0
5074,0.0
5075,-22.0
5076,-33.0
5077,8.0
5078,5.0
5079,47.0
5080,-1.0
5081,-2.0
5082,-41.0
5083,-17.0
5084,16.0
5085,29.0
5086,34.0
5087,-18.0
5088,33.0
5089,-16.0
5090,29.0
5091,-53.0
5092,40.0
5093,-58.0
5094,-144.0
5095,-39.0
5096,19.0
5097,-45.0
5098,45.0
5099,-21.0
5100,39.0
5101,-7.0
5102,14.0
5103,-18.0
5104,-13.0
5105,-2.0
5106,-10.0
5107,-78.0
5108,94.0
5109,-75.0
5110,57.0
5111,-88.0
5112,111.0
5113,-17.0
5114,42.0
5115,-28.0
5116,33.0
5117,-37.0
5118,53.0
5119,-5.0
5120,23.0
5121,-1.0
5122,4.0
5123,-9.0
5124,6.0
5125,-9.0
5126,82.0
5127,-10.0
5128,7.0
5129,-5.0
5130,0.0
5131,-9.0
5132,12.0
5133,1.0
5134,0.0
5135,-8.0
5136,3.0
5137,-12.0
5138,-1.0
5139,0.0
5140,0.0
5141,-4.0
5142,0.0
5143,-1.0
5144,0.0
5145,7.0
5146,-3.0
5147,2.0
5148,-3.0
5149,-2.0
5150,-12.0
5151,11.0
5152,-12.0
5153,0.0
5154,0.0
5155,4.0
5156,-11.0
5157,0.0
5158,-37.0
5159,34.0
5160,-26.0
5161,90.0
5162,-51.0
5163,47.0
5164,-61.0
5165,38.0
5166,-59.0
5167,104.0
5168,-47.0
5169,33.0
5170,-66.0
5171,117.0
5172,-11.0
5173,86.0
5174,-64.0
5175,123.0
5176,-117.0
5177,113.0
5178,-84.0
5179,46.0
5180,-19.0
5181,94.0
5182,-54.0
5183,66.0
5184,7.0
5185,40.0
5186,-18.0
5187,13.0
5188,-12.0
5189,32.0
5190,-13.0
5191,-23.0
5192,0.0
5193,41.0
5194,25.0
5195,-74.0
5196,-50.0
5197,50.0
5198,74.0
5199,-91.0
5200,73.0
5201,-23.0
5202,97.0
5203,-36.0
5204,107.0
5205,-94.0
5206,13.0
5207,-94.0
5208,150.0
5209,-119.0
5210,241.0
5211,-86.0
5212,137.0
5213,-52.0
5214,50.0
5215,128.0
5216,253.0
5217,-187.0
5218,262.0
5219,-95.0
5220,53.0
5221,-153.0
5222,83.0
5223,-72.0
5224,178.0
5225,-115.0
5226,217.0
5227,-311.0
5228,301.0
5229,-305.0
5230,220.0
5231,-275.0
5232,285.0
5233,-396.0
5234,327.0
5235,-299.0
5236,388.0
5237,-382.0
5238,517.0
5239,-524.0
5240,663.0
5241,-560.0
5242,601.0
5243,-550.0
5244,625.0
5245,-604.0
5246,861.0
5247,-597.0
5248,724.0
5249,-462.0
5250,765.0
5251,-539.0
5252,598.0
5253,-524.0
5254,540.0
5255,-567.0
5256,731.0
5257,-617.0
5258,899.0
5259,-709.0
5260,816.0
5261,-537.0
5262,661.0
5263,-453.0
5264,723.0
5265,-818.0
5266,832.0
5267,-663.0
5268,614.0
5269,-840.0
5270,778.0
5271,-957.0
5272,-46.0
5273,35.0
5274,-51.0
5275,26.0
5276,-35.0
5277,54.0
5278,-48.0
5279,33.0
5280,28.0
5281,23.0
5282,-61.0
5283,25.0
5284,-14.0
5285,46.0
5286,-24.0
5287,43.0
5288,-28.0
5289,22.0
5290,-49.0
5291,13.0
5292,16.0
5293,41.0
5294,-46.0
5295,68.0
5296,-23.0
5297,112.0
5298,-58.0
5299,158.0
5300,-78.0
5301,130.0
5302,-102.0
5303,113.0
5304,-101.0
5305,84.0
5306,-74.0
5307,148.0
5308,72.0
5309,112.0
5310,-25.0
5311,68.0
5312,-88.0
5313,48.0
5314,-50.0
5315,104.0
5316,-95.0
5317,151.0
5318,-76.0
5319,111.0
5320,-105.0
5321,124.0
5322,-91.0
5323,84.0
5324,-124.0
5325,68.0
5326,-90.0
5327,118.0
5328,-101.0
5329,98.0
5330,-83.0
5331,136.0
5332,-109.0
5333,87.0
5334,-112.0
5335,110.0
5336,-78.0
5337,88.0
5338,-134.0
5339,55.0
5340,-62.0
5341,67.0
5342,-56.0
5343,9.0
5344,-54.0
5345,59.0
5346,-61.0
5347,85.0
5348,-43.0
5349,62.0
5350,-7.0
5351,28.0
5352,0.0
5353,57.0
5354,-69.0
5355,54.0
5356,-78.0
5357,58.0
5358,-71.0
5359,77.0
5360,-71.0
5361,36.0
5362,-61.0
5363,63.0
5364,-62.0
5365,42.0
5366,-71.0
5367,99.0
5368,-117.0
5369,122.0
5370,-128.0
5371,116.0
5372,12.0
5373,87.0
5374,-20.0
5375,235.0
5376,-114.0
5377,101.0
5378,-196.0
5379,99.0
5380,-106.0
5381,93.0
5382,-51.0
5383,92.0
5384,-112.0
5385,121.0
5386,-115.0
5387,136.0
5388,-63.0
5389,119.0
5390,-118.0
5391,141.0
5392,-105.0
5393,157.0
5394,-169.0
5395,138.0
5396,-129.0
5397,172.0
5398,-109.0
5399,133.0
5400,-152.0
5401,142.0
5402,-136.0
5403,140.0
5404,-113.0
5405,100.0
5406,-170.0
5407,92.0
5408,23.0
5409,-40.0
5410,28.0
5411,13.0
5412,55.0
5413,16.0
5414,54.0
5415,-57.0
5416,80.0
5417,-12.0
5418,150.0
5419,9.0
5420,21.0
5421,-2.0
5422,45.0
5423,20.0
5424,-2.0
5425,8.0
5426,22.0
5427,-1.0
5428,-3.0
5429,3.0
5430,25.0
5431,-20.0
5432,31.0
5433,-28.0
5434,43.0
5435,-34.0
5436,45.0
5437,-16.0
5438,15.0
5439,-57.0
5440,24.0
5441,-36.0
5442,19.0
5443,-27.0
5444,26.0
5445,-16.0
5446,58.0
5447,-22.0
5448,39.0
5449,-20.0
5450,52.0
5451,-25.0
5452,14.0
5453,-12.0
5454,59.0
5455,0.0
5456,18.0
5457,-25.0
5458,33.0
5459,-7.0
5460,30.0
5461,31.0
5462,2.0
5463,-7.0
5464,0.0
5465,10.0
5466,-65.0
5467,34.0
5468,-49.0
5469,25.0
5470,-13.0
5471,118.0
5472,-5.0
5473,177.0
5474,-52.0
5475,44.0
5476,-23.0
5477,23.0
5478,-36.0
5479,11.0
5480,-46.0
5481,53.0
5482,-18.0
5483,4.0
5484,0.0
5485,-6.0
5486,7.0
5487,-10.0
5488,-15.0
5489,-10.0
5490,23.0
5491,49.0
5492,-12.0
5493,29.0
5494,-24.0
5495,19.0
5496,-5.0
5497,32.0
5498,-20.0
5499,32.0
5500,-36.0
5501,49.0
5502,-18.0
5503,37.0
5504,-12.0
5505,37.0
5506,-10.0
5507,35.0
5508,-8.0
5509,51.0
5510,-12.0
5511,13.0
5512,-25.0
5513,17.0
5514,-24.0
5515,20.0
5516,-8.0
5517,5.0
5518,-9.0
5519,3.0
5520,-3.0
5521,17.0
5522,8.0
5523,-4.0
5524,-5.0
5525,5.0
5526,-6.0
5527,17.0
5528,-8.0
5529,19.0
5530,-11.0
5531,173.0
5532,-18.0
5533,25.0
5534,-30.0
5535,22.0
5536,-126.0
5537,102.0
5538,-148.0
5539,272.0
5540,-94.0
5541,276.0
5542,-212.0
5543,306.0
5544,-356.0
5545,801.0
5546,-349.0
5547,434.0
5548,-377.0
5549,448.0
5550,-473.0
5551,519.0
5552,-427.0
5553,524.0
5554,-411.0
5555,490.0
5556,-445.0
5557,456.0
5558,-422.0
5559,608.0
5560,-440.0
5561,-51.0
5562,40.0
5563,-62.0
5564,48.0
5565,0.0
5566,86.0
5567,-21.0
5568,85.0
5569,-56.0
5570,16.0
5571,-25.0
5572,33.0
5573,13.0
5574,58.0
5575,-31.0
5576,86.0
5577,33.0
5578,0.0
5579,94.0
5580,100.0
5581,-139.0
5582,125.0
5583,-78.0
5584,153.0
5585,-159.0
5586,142.0
5587,-66.0
5588,155.0
5589,-141.0
5590,329.0
5591,-302.0
5592,302.0
5593,-32.0
5594,58.0
5595,-41.0
5596,-91.0
5597,-13.0
5598,129.0
5599,159.0
5600,-210.0
5601,139.0
5602,-121.0
5603,136.0
5604,-6.0
5605,139.0
5606,120.0
5607,235.0
5608,78.0
5609,-158.0
5610,53.0
5611,-103.0
5612,98.0
5613,-71.0
5614,91.0
5615,-25.0
5616,32.0
5617,-7.0
5618,15.0
5619,39.0
5620,15.0
5621,-10.0
5622,13.0
5623,-11.0
5624,10.0
5625,-8.0
5626,0.0
5627,1.0
5628,-6.0
5629,-42.0
5630,18.0
5631,-45.0
5632,20.0
5633,-42.0
5634,12.0
5635,-19.0
5636,11.0
5637,-75.0
5638,19.0
5639,6.0
5640,-15.0
5641,2.0
5642,14.0
5643,-17.0
5644,32.0
5645,-20.0
5646,73.0
5647,-8.0
5648,110.0
5649,-19.0
5650,39.0
5651,-62.0
5652,50.0
5653,-12.0
5654,5.0
5655,-8.0
5656,-3.0
5657,23.0
5658,2.0
5659,-7.0
5660,-5.0
5661,17.0
5662,11.0
5663,-14.0
5664,41.0
5665,-3.0
5666,-1.0
5667,33.0
5668,-39.0
5669,63.0
5670,27.0
5671,0.0
5672,9.0
5673,-28.0
5674,21.0
5675,0.0
5676,-63.0
5677,101.0
5678,-108.0
5679,74.0
5680,-61.0
5681,79.0
5682,9.0
5683,13.0
5684,17.0
5685,-11.0
5686,20.0
5687,11.0
5688,1.0
5689,35.0
5690,-31.0
5691,-11.0
5692,12.0
5693,-13.0
5694,46.0
5695,-29.0
5696,6.0
5697,-20.0
5698,20.0
5699,-17.0
5700,44.0
5701,-26.0
5702,67.0
5703,-23.0
5704,25.0
5705,-30.0
5706,12.0
5707,-27.0
5708,25.0
5709,-34.0
5710,22.0
5711,-32.0
5712,11.0
5713,-17.0
5714,13.0
5715,-16.0
5716,7.0
5717,-51.0
5718,35.0
5719,-51.0
5720,55.0
5721,-35.0
5722,52.0
5723,-24.0
5724,39.0
5725,-3.0
5726,65.0
5727,-26.0
5728,35.0
5729,-41.0
5730,39.0
5731,-26.0
5732,54.0
5733,-36.0
5734,76.0
5735,-40.0
5736,61.0
5737,-46.0
5738,76.0
5739,-5.0
5740,90.0
5741,-41.0
5742,65.0
5743,16.0
5744,1.0
5745,49.0
5746,-7.0
5747,153.0
5748,-45.0
5749,42.0
5750,-59.0
5751,-17.0
5752,0.0
5753,11.0
5754,98.0
5755,87.0
5756,-57.0
5757,78.0
5758,-32.0
5759,65.0
5760,-82.0
5761,113.0
5762,-36.0
5763,88.0
5764,-101.0
5765,99.0
5766,-77.0
5767,2.0
5768,-69.0
5769,128.0
5770,-121.0
5771,103.0
5772,-77.0
5773,134.0
5774,-86.0
5775,97.0
5776,-122.0
5777,106.0
5778,-28.0
5779,286.0
5780,-175.0
5781,270.0
5782,-118.0
5783,524.0
5784,-227.0
5785,350.0
5786,-305.0
5787,281.0
5788,-296.0
5789,129.0
5790,-285.0
5791,306.0
5792,-319.0
5793,171.0
5794,-305.0
5795,-37.0
5796,34.0
5797,-32.0
5798,53.0
5799,-28.0
5800,58.0
5801,-22.0
5802,27.0
5803,-21.0
5804,36.0
5805,-39.0
5806,14.0
5807,-54.0
5808,91.0
5809,-111.0
5810,112.0
5811,-126.0
5812,102.0
5813,-37.0
5814,27.0
5815,-30.0
5816,74.0
5817,-52.0
5818,79.0
5819,-14.0
5820,74.0
5821,-31.0
5822,118.0
5823,-77.0
5824,96.0
5825,16.0
5826,-17.0
5827,2.0
5828,14.0
5829,43.0
5830,-56.0
5831,72.0
5832,-9.0
5833,139.0
5834,-62.0
5835,43.0
5836,-96.0
5837,100.0
5838,-89.0
5839,54.0
5840,-75.0
5841,93.0
5842,-86.0
5843,26.0
5844,-58.0
5845,114.0
5846,-125.0
5847,185.0
5848,-111.0
5849,127.0
5850,-158.0
5851,161.0
5852,-117.0
5853,186.0
5854,-190.0
5855,181.0
5856,-142.0
5857,115.0
5858,11.0
5859,24.0
5860,-16.0
5861,-17.0
5862,148.0
5863,16.0
5864,487.0
5865,-501.0
5866,534.0
5867,-521.0
5868,544.0
5869,-521.0
5870,550.0
5871,-495.0
5872,537.0
5873,-471.0
5874,468.0
5875,-432.0
5876,576.0
5877,-436.0
5878,-37.0
5879,25.0
5880,-32.0
5881,65.0
5882,-100.0
5883,87.0
5884,-71.0
5885,101.0
5886,-100.0
5887,93.0
5888,-78.0
5889,46.0
5890,-35.0
5891,89.0
5892,11.0
5893,139.0
5894,-64.0
5895,69.0
5896,-75.0
5897,65.0
5898,-81.0
5899,75.0
5900,-53.0
5901,71.0
5902,-74.0
5903,72.0
5904,-61.0
5905,52.0
5906,-76.0
5907,144.0
5908,-96.0
5909,236.0
5910,-127.0
5911,120.0
5912,-112.0
5913,275.0
5914,-136.0
5915,108.0
5916,-110.0
5917,115.0
5918,-112.0
5919,214.0
5920,-217.0
5921,131.0
5922,-193.0
5923,193.0
5924,-144.0
5925,134.0
5926,-154.0
5927,181.0
5928,-140.0
5929,187.0
5930,-132.0
5931,185.0
5932,-160.0
5933,185.0
5934,-86.0
5935,-16.0
5936,100.0
5937,-68.0
5938,-1.0
5939,-29.0
5940,156.0
5941,-106.0
5942,104.0
5943,-166.0
5944,147.0
5945,-40.0
5946,100.0
5947,-107.0
5948,95.0
5949,-137.0
5950,146.0
5951,-164.0
5952,206.0
5953,-230.0
5954,166.0
5955,-220.0
5956,209.0
5957,-204.0
5958,272.0
5959,-174.0
5960,200.0
5961,-194.0
5962,203.0
5963,-192.0
5964,162.0
5965,-262.0
5966,180.0
5967,-225.0
5968,212.0
5969,-254.0
5970,202.0
5971,-301.0
5972,305.0
5973,-308.0
5974,293.0
5975,-286.0
5976,346.0
5977,-237.0
5978,275.0
5979,-332.0
5980,337.0
5981,-284.0
5982,324.0
5983,-291.0
5984,301.0
5985,-284.0
5986,286.0
5987,-300.0
5988,288.0
5989,-331.0
5990,328.0
5991,-319.0
5992,382.0
5993,-279.0
5994,275.0
5995,-279.0
5996,297.0
5997,-227.0
5998,273.0
5999,-310.0
6000,290.0
6001,-297.0
6002,612.0
6003,-249.0
6004,273.0
6005,-246.0
6006,267.0
6007,-334.0
6008,263.0
6009,-280.0
6010,289.0
6011,-265.0
6012,220.0
6013,-245.0
6014,478.0
6015,-273.0
6016,256.0
6017,-301.0
6018,254.0
6019,-272.0
6020,359.0
6021,-357.0
6022,284.0
6023,-307.0
6024,235.0
6025,-248.0
6026,320.0
6027,-346.0
6028,589.0
6029,-203.0
6030,659.0
6031,-319.0
6032,482.0
6033,-1178.0
6034,378.0
6035,-300.0
6036,671.0
6037,-367.0
6038,716.0
6039,-75.0
6040,181.0
6041,-210.0
6042,218.0
6043,-200.0
6044,233.0
6045,-235.0
6046,213.0
6047,-206.0
6048,170.0
6049,-196.0
6050,164.0
6051,-294.0
6052,259.0
6053,-259.0
6054,264.0
6055,-267.0
6056,251.0
6057,-561.0
6058,633.0
6059,-316.0
6060,-35.0
6061,61.0
6062,-17.0
6063,24.0
6064,5.0
6065,13.0
6066,-17.0
6067,24.0
6068,8.0
6069,18.0
6070,-5.0
6071,9.0
6072,-12.0
6073,44.0
6074,-25.0
6075,54.0
6076,53.0
6077,50.0
6078,22.0
6079,36.0
6080,-9.0
6081,2.0
6082,20.0
6083,61.0
6084,-5.0
6085,14.0
6086,13.0
6087,102.0
6088,-1.0
6089,91.0
6090,-39.0
6091,34.0
6092,-45.0
6093,40.0
6094,-63.0
6095,29.0
6096,-109.0
6097,96.0
6098,-82.0
6099,146.0
6100,-187.0
6101,393.0
6102,-303.0
6103,208.0
6104,-322.0
6105,333.0
6106,-217.0
6107,221.0
6108,-350.0
6109,314.0
6110,-400.0
6111,385.0
6112,-257.0
6113,232.0
6114,-352.0
6115,384.0
6116,-367.0
6117,361.0
6118,-276.0
6119,392.0
6120,-320.0
6121,334.0
6122,-373.0
6123,435.0
6124,-375.0
6125,580.0
6126,-532.0
6127,775.0
6128,-771.0
6129,-51.0
6130,40.0
6131,-49.0
6132,48.0
6133,0.0
6134,86.0
6135,-21.0
6136,85.0
6137,-82.0
6138,51.0
6139,-15.0
6140,61.0
6141,-22.0
6142,62.0
6143,-27.0
6144,38.0
6145,-11.0
6146,12.0
6147,-4.0
6148,69.0
6149,-72.0
6150,106.0
6151,-112.0
6152,90.0
6153,-76.0
6154,62.0
6155,-107.0
6156,102.0
6157,-83.0
6158,75.0
6159,-18.0
6160,50.0
6161,-16.0
6162,63.0
6163,-75.0
6164,12.0
6165,6.0
6166,-6.0
6167,-43.0
6168,33.0
6169,-28.0
6170,111.0
6171,-26.0
6172,16.0
6173,-37.0
6174,24.0
6175,0.0
6176,80.0
6177,-8.0
6178,27.0
6179,162.0
6180,19.0
6181,-61.0
6182,87.0
6183,-40.0
6184,182.0
6185,-55.0
6186,139.0
6187,-65.0
6188,158.0
6189,-171.0
6190,198.0
6191,-165.0
6192,207.0
6193,-196.0
6194,217.0
6195,-303.0
6196,261.0
6197,-153.0
6198,195.0
6199,-162.0
6200,132.0
6201,-183.0
6202,367.0
6203,-487.0
6204,528.0
6205,-388.0
6206,739.0
6207,-915.0
6208,-54.0
6209,89.0
6210,-89.0
6211,101.0
6212,-62.0
6213,107.0
6214,-91.0
6215,111.0
6216,-77.0
6217,107.0
6218,-95.0
6219,139.0
6220,-101.0
6221,145.0
6222,-74.0
6223,73.0
6224,88.0
6225,99.0
6226,-36.0
6227,62.0
6228,-28.0
6229,57.0
6230,16.0
6231,3.0
6232,-21.0
6233,85.0
6234,-36.0
6235,102.0
6236,-33.0
6237,56.0
6238,50.0
6239,11.0
6240,7.0
6241,-21.0
6242,30.0
6243,-14.0
6244,35.0
6245,-40.0
6246,28.0
6247,-21.0
6248,13.0
6249,-32.0
6250,39.0
6251,-17.0
6252,37.0
6253,-60.0
6254,25.0
6255,-14.0
6256,21.0
6257,-13.0
6258,11.0
6259,0.0
6260,14.0
6261,-12.0
6262,24.0
6263,50.0
6264,8.0
6265,3.0
6266,11.0
6267,-8.0
6268,6.0
6269,0.0
6270,-6.0
6271,25.0
6272,15.0
6273,-11.0
6274,-2.0
6275,-1.0
6276,4.0
6277,1.0
6278,11.0
6279,-11.0
6280,12.0
6281,-12.0
6282,53.0
6283,-37.0
6284,51.0
6285,-52.0
6286,120.0
6287,-137.0
6288,165.0
6289,-62.0
6290,87.0
6291,-56.0
6292,101.0
6293,-79.0
6294,219.0
6295,-54.0
6296,317.0
6297,-358.0
6298,437.0
6299,-268.0
6300,387.0
6301,-335.0
6302,328.0
6303,-354.0
6304,618.0
6305,-522.0
6306,774.0
6307,-770.0
6308,6185.0
6309,-6144.0
6310,-51.0
6311,35.0
6312,-51.0
6313,55.0
6314,-57.0
6315,48.0
6316,-40.0
6317,-13.0
6318,-41.0
6319,54.0
6320,-5.0
6321,15.0
6322,-28.0
6323,54.0
6324,-71.0
6325,32.0
6326,23.0
6327,34.0
6328,37.0
6329,53.0
6330,59.0
6331,101.0
6332,-83.0
6333,37.0
6334,-20.0
6335,2.0
6336,-3.0
6337,-60.0
6338,118.0
6339,-175.0
6340,53.0
6341,15.0
6342,44.0
6343,-14.0
6344,34.0
6345,-64.0
6346,28.0
6347,-92.0
6348,12.0
6349,54.0
6350,27.0
6351,-107.0
6352,12.0
6353,-167.0
6354,18.0
6355,-77.0
6356,59.0
6357,0.0
6358,0.0
6359,0.0
6360,0.0
6361,0.0
6362,0.0
6363,0.0
6364,0.0
6365,-51.0
6366,35.0
6367,-51.0
6368,55.0
6369,-35.0
6370,30.0
6371,-22.0
6372,15.0
6373,-39.0
6374,40.0
6375,-72.0
6376,60.0
6377,-6.0
6378,23.0
6379,-13.0
6380,0.0
6381,-7.0
6382,31.0
6383,12.0
6384,-6.0
6385,-20.0
6386,5.0
6387,-12.0
6388,15.0
6389,-17.0
6390,19.0
6391,11.0
6392,-12.0
6393,0.0
6394,-7.0
6395,12.0
6396,35.0
6397,-8.0
6398,2.0
6399,-9.0
6400,25.0
6401,-18.0
6402,14.0
6403,-22.0
6404,28.0
6405,-24.0
6406,39.0
6407,-46.0
6408,41.0
6409,-25.0
6410,62.0
6411,-66.0
6412,33.0
6413,-41.0
6414,12.0
6415,-29.0
6416,19.0
6417,-47.0
6418,6.0
6419,-39.0
6420,73.0
6421,-58.0
6422,84.0
6423,-28.0
6424,84.0
6425,-36.0
6426,123.0
6427,-19.0
6428,17.0
6429,-2.0
6430,27.0
6431,-45.0
6432,39.0
6433,-8.0
6434,59.0
6435,-73.0
6436,38.0
6437,-75.0
6438,112.0
6439,-24.0
6440,101.0
6441,-45.0
6442,30.0
6443,-24.0
6444,30.0
6445,42.0
6446,40.0
6447,-30.0
6448,42.0
6449,-32.0
6450,13.0
6451,-12.0
6452,-36.0
6453,2.0
6454,-10.0
6455,-8.0
6456,23.0
6457,-51.0
6458,125.0
6459,-37.0
6460,114.0
6461,-73.0
6462,22.0
6463,-78.0
6464,54.0
6465,-126.0
6466,91.0
6467,-249.0
6468,451.0
6469,-472.0
6470,348.0
6471,-283.0
6472,-51.0
6473,50.0
6474,-49.0
6475,48.0
6476,0.0
6477,86.0
6478,-21.0
6479,29.0
6480,-28.0
6481,30.0
6482,-75.0
6483,109.0
6484,-104.0
6485,153.0
6486,-64.0
6487,214.0
6488,-36.0
6489,150.0
6490,-13.0
6491,22.0
6492,-28.0
6493,5.0
6494,2.0
6495,151.0
6496,-21.0
6497,85.0
6498,-72.0
6499,131.0
6500,-88.0
6501,43.0
6502,214.0
6503,-196.0
6504,285.0
6505,-340.0
6506,287.0
6507,-171.0
6508,348.0
6509,-224.0
6510,319.0
6511,-274.0
6512,370.0
6513,-287.0
6514,219.0
6515,-454.0
6516,457.0
6517,-387.0
6518,405.0
6519,-427.0
6520,548.0
6521,-413.0
6522,574.0
6523,-572.0
6524,572.0
6525,-516.0
6526,595.0
6527,-609.0
6528,659.0
6529,-567.0
6530,553.0
6531,-531.0
6532,714.0
6533,-447.0
6534,606.0
6535,-575.0
6536,731.0
6537,-774.0
6538,809.0
6539,-820.0
6540,749.0
6541,-706.0
6542,858.0
6543,-767.0
6544,-51.0
6545,35.0
6546,6.0
6547,-27.0
6548,0.0
6549,-16.0
6550,14.0
6551,63.0
6552,22.0
6553,-30.0
6554,74.0
6555,-61.0
6556,72.0
6557,-30.0
6558,66.0
6559,-26.0
6560,84.0
6561,-25.0
6562,142.0
6563,-3.0
6564,72.0
6565,-35.0
6566,91.0
6567,75.0
6568,150.0
6569,106.0
6570,304.0
6571,-180.0
6572,276.0
6573,-133.0
6574,169.0
6575,-299.0
6576,862.0
6577,-834.0
6578,872.0
6579,-778.0
6580,3.0
6581,-2.0
6582,-37.0
6583,25.0
6584,-32.0
6585,113.0
6586,-111.0
6587,112.0
6588,-87.0
6589,90.0
6590,-104.0
6591,148.0
6592,-72.0
6593,105.0
6594,-82.0
6595,113.0
6596,-83.0
6597,157.0
6598,-96.0
6599,130.0
6600,-153.0
6601,118.0
6602,-113.0
6603,273.0
6604,-245.0
6605,331.0
6606,-309.0
6607,406.0
6608,-372.0
6609,335.0
6610,-237.0
6611,334.0
6612,-360.0
6613,378.0
6614,-358.0
6615,299.0
6616,-247.0
6617,346.0
6618,-363.0
6619,367.0
6620,-174.0
6621,118.0
6622,-13.0
6623,244.0
6624,-66.0
6625,257.0
6626,-156.0
6627,139.0
6628,-194.0
6629,347.0
6630,-171.0
6631,93.0
6632,-55.0
6633,2.0
6634,0.0
6635,-19.0
6636,59.0
6637,917.0
6638,-932.0
6639,-51.0
6640,50.0
6641,-49.0
6642,32.0
6643,-33.0
6644,48.0
6645,-21.0
6646,-12.0
6647,-25.0
6648,20.0
6649,-35.0
6650,55.0
6651,-59.0
6652,76.0
6653,-6.0
6654,53.0
6655,-22.0
6656,6.0
6657,16.0
6658,8.0
6659,-33.0
6660,204.0
6661,-25.0
6662,44.0
6663,-40.0
6664,21.0
6665,16.0
6666,-18.0
6667,28.0
6668,-35.0
6669,81.0
6670,-82.0
6671,69.0
6672,-63.0
6673,100.0
6674,-27.0
6675,52.0
6676,-75.0
6677,79.0
6678,-81.0
6679,71.0
6680,-21.0
6681,125.0
6682,-66.0
6683,112.0
6684,-19.0
6685,32.0
6686,-20.0
6687,18.0
6688,-5.0
6689,37.0
6690,6.0
6691,13.0
6692,0.0
6693,0.0
6694,0.0
6695,-3.0
6696,5.0
6697,69.0
6698,40.0
6699,-7.0
6700,50.0
6701,-25.0
6702,92.0
6703,-63.0
6704,87.0
6705,-31.0
6706,76.0
6707,-89.0
6708,49.0
6709,-30.0
6710,112.0
6711,-63.0
6712,176.0
6713,-203.0
6714,184.0
6715,-171.0
6716,192.0
6717,-172.0
6718,237.0
6719,-130.0
6720,187.0
6721,-113.0
6722,144.0
6723,-123.0
6724,201.0
6725,-133.0
6726,178.0
6727,-138.0
6728,151.0
6729,-214.0
6730,303.0
6731,-211.0
6732,252.0
6733,-254.0
6734,254.0
6735,-187.0
6736,237.0
6737,-247.0
6738,128.0
6739,-36.0
6740,47.0
6741,-13.0
6742,49.0
6743,-12.0
6744,12.0
6745,-51.0
6746,42.0
6747,-44.0
6748,89.0
6749,-72.0
6750,74.0
6751,-48.0
6752,111.0
6753,-86.0
6754,116.0
6755,-72.0
6756,230.0
6757,-156.0
6758,120.0
6759,-44.0
6760,82.0
6761,-48.0
6762,252.0
6763,-83.0
6764,110.0
6765,-87.0
6766,87.0
6767,-88.0
6768,73.0
6769,-108.0
6770,110.0
6771,-67.0
6772,99.0
6773,-62.0
6774,10.0
6775,7.0
6776,41.0
6777,74.0
6778,39.0
6779,13.0
6780,-17.0
6781,49.0
6782,-54.0
6783,27.0
6784,-40.0
6785,55.0
6786,-33.0
6787,61.0
6788,-4.0
6789,75.0
6790,-34.0
6791,38.0
6792,-93.0
6793,25.0
6794,0.0
6795,-12.0
6796,-21.0
6797,22.0
6798,21.0
6799,-25.0
6800,0.0
6801,-5.0
6802,21.0
6803,-12.0
6804,20.0
6805,-15.0
6806,19.0
6807,-19.0
6808,13.0
6809,-8.0
6810,11.0
6811,-21.0
6812,48.0
6813,-12.0
6814,11.0
6815,0.0
6816,17.0
6817,0.0
6818,22.0
6819,-2.0
6820,39.0
6821,0.0
6822,-3.0
6823,-3.0
6824,18.0
6825,-20.0
6826,18.0
6827,-15.0
6828,9.0
6829,-16.0
6830,17.0
6831,-17.0
6832,9.0
6833,-3.0
6834,1.0
6835,-8.0
6836,12.0
6837,-28.0
6838,12.0
6839,-12.0
6840,0.0
6841,-9.0
6842,0.0
6843,12.0
6844,-11.0
6845,0.0
6846,-11.0
6847,-37.0
6848,18.0
6849,-42.0
6850,12.0
6851,-33.0
6852,58.0
6853,-12.0
6854,28.0
6855,-33.0
6856,12.0
6857,-18.0
6858,41.0
6859,-37.0
6860,18.0
6861,7.0
6862,24.0
6863,-12.0
6864,138.0
6865,18.0
6866,75.0
6867,-2.0
6868,4.0
6869,-16.0
6870,-63.0
6871,-48.0
6872,-34.0
6873,128.0
6874,19.0
6875,-20.0
6876,38.0
6877,-35.0
6878,27.0
6879,-6.0
6880,2.0
6881,-11.0
6882,18.0
6883,12.0
6884,18.0
6885,-13.0
6886,22.0
6887,-19.0
6888,11.0
6889,0.0
6890,80.0
6891,-82.0
6892,88.0
6893,-60.0
6894,79.0
6895,-296.0
6896,277.0
6897,-424.0
6898,403.0
6899,-480.0
6900,547.0
6901,-491.0
6902,442.0
6903,-513.0
6904,489.0
6905,-479.0
6906,400.0
6907,-387.0
6908,381.0
6909,-343.0
6910,400.0
6911,-329.0
6912,426.0
6913,-409.0
6914,330.0
6915,-349.0
6916,403.0
6917,-445.0
6918,321.0
6919,-165.0
6920,174.0
6921,-189.0
6922,164.0
6923,-118.0
6924,148.0
6925,-163.0
6926,118.0
6927,-150.0
6928,253.0
6929,-334.0
6930,242.0
6931,-307.0
6932,288.0
6933,-250.0
6934,277.0
6935,-263.0
6936,254.0
6937,-156.0
6938,240.0
6939,-208.0
6940,290.0
6941,-274.0
6942,338.0
6943,-158.0
6944,199.0
6945,-259.0
6946,320.0
6947,-325.0
6948,375.0
6949,-376.0
6950,436.0
6951,-412.0
6952,459.0
6953,-454.0
6954,-54.0
6955,50.0
6956,-49.0
6957,32.0
6958,-53.0
6959,1.0
6960,-26.0
6961,16.0
6962,-46.0
6963,-35.0
6964,-94.0
6965,44.0
6966,15.0
6967,54.0
6968,-53.0
6969,57.0
6970,-59.0
6971,29.0
6972,-88.0
6973,70.0
6974,-45.0
6975,48.0
6976,-14.0
6977,32.0
6978,13.0
6979,0.0
6980,11.0
6981,13.0
6982,-4.0
6983,18.0
6984,-13.0
6985,0.0
6986,-7.0
6987,-9.0
6988,-1.0
6989,17.0
6990,-37.0
6991,15.0
6992,7.0
6993,45.0
6994,25.0
6995,25.0
6996,9.0
6997,6.0
6998,-2.0
6999,0.0
7000,-17.0
7001,-3.0
7002,19.0
7003,14.0
7004,0.0
7005,12.0
7006,18.0
7007,-37.0
7008,34.0
7009,-32.0
7010,34.0
7011,-28.0
7012,58.0
7013,-12.0
7014,37.0
7015,-37.0
7016,25.0
7017,-31.0
7018,32.0
7019,-40.0
7020,77.0
7021,-39.0
7022,55.0
7023,-27.0
7024,55.0
7025,-17.0
7026,97.0
7027,17.0
7028,-11.0
7029,28.0
7030,-2.0
7031,-26.0
7032,-2.0
7033,-12.0
7034,22.0
7035,-10.0
7036,53.0
7037,-9.0
7038,2.0
7039,-12.0
7040,-39.0
7041,58.0
7042,-36.0
7043,32.0
7044,-32.0
7045,19.0
7046,-36.0
7047,48.0
7048,-27.0
7049,35.0
7050,-23.0
7051,20.0
7052,-10.0
7053,30.0
7054,-31.0
7055,59.0
7056,-23.0
7057,85.0
7058,-4.0
7059,32.0
7060,33.0
7061,16.0
7062,-33.0
7063,5.0
7064,97.0
7065,-90.0
7066,25.0
7067,-54.0
7068,0.0
7069,-20.0
7070,72.0
7071,-151.0
7072,-2.0
7073,67.0
7074,-60.0
7075,158.0
7076,-45.0
7077,119.0
7078,-104.0
7079,87.0
7080,12.0
7081,107.0
7082,-86.0
7083,77.0
7084,-24.0
7085,44.0
7086,-6.0
7087,42.0
7088,10.0
7089,84.0
7090,-93.0
7091,117.0
7092,-1.0
7093,117.0
7094,-99.0
7095,58.0
7096,-64.0
7097,229.0
7098,143.0
7099,-209.0
7100,115.0
7101,-41.0
7102,51.0
7103,-60.0
7104,177.0
7105,-29.0
7106,143.0
7107,-56.0
7108,156.0
7109,-127.0
7110,194.0
7111,-154.0
7112,167.0
7113,-278.0
7114,291.0
7115,-55.0
7116,373.0
7117,-183.0
7118,263.0
7119,-416.0
7120,334.0
7121,-313.0
7122,337.0
7123,-366.0
7124,285.0
7125,-311.0
7126,249.0
7127,-353.0
7128,359.0
7129,-262.0
7130,439.0
7131,-286.0
7132,427.0
7133,-392.0
7134,387.0
7135,-383.0
7136,373.0
7137,-355.0
7138,369.0
7139,-229.0
7140,365.0
7141,-438.0
7142,469.0
7143,-477.0
7144,492.0
7145,-458.0
7146,496.0
7147,-501.0
7148,453.0
7149,-487.0
7150,522.0
7151,-501.0
7152,500.0
7153,-484.0
7154,-37.0
7155,18.0
7156,1.0
7157,44.0
7158,-37.0
7159,61.0
7160,-36.0
7161,37.0
7162,-41.0
7163,62.0
7164,-32.0
7165,36.0
7166,-41.0
7167,29.0
7168,-36.0
7169,69.0
7170,-30.0
7171,23.0
7172,11.0
7173,29.0
7174,4.0
7175,-5.0
7176,-18.0
7177,27.0
7178,-23.0
7179,0.0
7180,-20.0
7181,27.0
7182,-32.0
7183,12.0
7184,-26.0
7185,50.0
7186,-25.0
7187,46.0
7188,-23.0
7189,24.0
7190,-29.0
7191,43.0
7192,-14.0
7193,29.0
7194,-20.0
7195,50.0
7196,-8.0
7197,17.0
7198,-3.0
7199,20.0
7200,-22.0
7201,20.0
7202,-15.0
7203,24.0
7204,-33.0
7205,32.0
7206,-14.0
7207,13.0
7208,-12.0
7209,13.0
7210,19.0
7211,0.0
7212,40.0
7213,34.0
7214,-9.0
7215,37.0
7216,0.0
7217,36.0
7218,-9.0
7219,25.0
7220,-30.0
7221,83.0
7222,-47.0
7223,43.0
7224,-30.0
7225,23.0
7226,-46.0
7227,58.0
7228,-12.0
7229,48.0
7230,-48.0
7231,26.0
7232,-2.0
7233,23.0
7234,6.0
7235,-9.0
7236,755.0
7237,-230.0
7238,713.0
7239,-732.0
7240,941.0
7241,-881.0
7242,4.0
7243,-878.0
7244,836.0
7245,-556.0
7246,776.0
7247,-919.0
7248,840.0
7249,-826.0
7250,848.0
7251,-825.0
7252,858.0
7253,-1015.0
7254,996.0
7255,-955.0
7256,1162.0
7257,-987.0
7258,792.0
7259,-1070.0
7260,-51.0
7261,40.0
7262,-49.0
7263,56.0
7264,-24.0
7265,1.0
7266,-48.0
7267,16.0
7268,-46.0
7269,33.0
7270,-94.0
7271,30.0
7272,15.0
7273,54.0
7274,-53.0
7275,57.0
7276,-22.0
7277,46.0
7278,-97.0
7279,70.0
7280,-45.0
7281,20.0
7282,15.0
7283,6.0
7284,45.0
7285,39.0
7286,4.0
7287,-5.0
7288,-16.0
7289,12.0
7290,-31.0
7291,56.0
7292,16.0
7293,51.0
7294,-61.0
7295,142.0
7296,104.0
7297,-13.0
7298,17.0
7299,172.0
7300,11.0
7301,-4.0
7302,55.0
7303,-30.0
7304,17.0
7305,2.0
7306,81.0
7307,-3.0
7308,-4.0
7309,-23.0
7310,37.0
7311,-87.0
7312,165.0
7313,-164.0
7314,202.0
7315,58.0
7316,22.0
7317,-9.0
7318,-24.0
7319,21.0
7320,-50.0
7321,57.0
7322,-19.0
7323,38.0
7324,-58.0
7325,35.0
7326,-16.0
7327,30.0
7328,-16.0
7329,45.0
7330,-63.0
7331,23.0
7332,-220.0
7333,44.0
7334,-16.0
7335,29.0
7336,-39.0
7337,49.0
7338,-30.0
7339,33.0
7340,-21.0
7341,20.0
7342,-37.0
7343,45.0
7344,-37.0
7345,26.0
7346,-10.0
7347,27.0
7348,-21.0
7349,17.0
7350,-35.0
7351,33.0
7352,-27.0
7353,38.0
7354,-35.0
7355,32.0
7356,-16.0
7357,19.0
7358,-18.0
7359,17.0
7360,-19.0
7361,9.0
7362,-9.0
7363,15.0
7364,-18.0
7365,12.0
7366,-22.0
7367,16.0
7368,-12.0
7369,13.0
7370,-25.0
7371,12.0
7372,-11.0
7373,23.0
7374,-16.0
7375,14.0
7376,-17.0
7377,10.0
7378,-10.0
7379,-37.0
7380,18.0
7381,1.0
7382,28.0
7383,-22.0
7384,46.0
7385,-20.0
7386,40.0
7387,-60.0
7388,27.0
7389,-48.0
7390,77.0
7391,-48.0
7392,76.0
7393,-66.0
7394,80.0
7395,-44.0
7396,66.0
7397,-40.0
7398,50.0
7399,23.0
7400,16.0
7401,-7.0
7402,-1.0
7403,-58.0
7404,54.0
7405,-41.0
7406,0.0
7407,51.0
7408,-25.0
7409,70.0
7410,-72.0
7411,35.0
7412,9.0
7413,60.0
7414,-14.0
7415,13.0
7416,82.0
7417,28.0
7418,9.0
7419,12.0
7420,-2.0
7421,117.0
7422,-20.0
7423,33.0
7424,-39.0
7425,50.0
7426,-36.0
7427,31.0
7428,-57.0
7429,62.0
7430,-55.0
7431,61.0
7432,-55.0
7433,172.0
7434,-98.0
7435,100.0
7436,-38.0
7437,56.0
7438,-137.0
7439,112.0
7440,-97.0
7441,63.0
7442,-69.0
7443,132.0
7444,-145.0
7445,127.0
7446,-112.0
7447,141.0
7448,-159.0
7449,141.0
7450,-142.0
7451,132.0
7452,-121.0
7453,181.0
7454,-162.0
7455,245.0
7456,-216.0
7457,257.0
7458,-247.0
7459,276.0
7460,-302.0
7461,287.0
7462,-280.0
7463,242.0
7464,-307.0
7465,384.0
7466,-303.0
7467,250.0
7468,-188.0
7469,155.0
7470,-203.0
7471,189.0
7472,-169.0
7473,163.0
7474,-128.0
7475,134.0
7476,-125.0
7477,148.0
7478,-163.0
7479,254.0
7480,-170.0
7481,210.0
7482,-179.0
7483,242.0
7484,-23.0
7485,151.0
7486,-153.0
7487,101.0
7488,-131.0
7489,143.0
7490,-191.0
7491,156.0
7492,-190.0
7493,255.0
7494,-305.0
7495,647.0
7496,-647.0
7497,699.0
7498,-1178.0
7499,147.0
7500,-1136.0
7501,12.0
7502,-1039.0
7503,655.0
7504,-87.0
7505,1111.0
7506,-1039.0
7507,18.0
7508,-1120.0
7509,-37.0
7510,34.0
7511,-32.0
7512,65.0
7513,-100.0
7514,136.0
7515,-71.0
7516,119.0
7517,-27.0
7518,34.0
7519,19.0
7520,11.0
7521,-5.0
7522,5.0
7523,-19.0
7524,28.0
7525,-2.0
7526,25.0
7527,-31.0
7528,54.0
7529,-35.0
7530,51.0
7531,-10.0
7532,64.0
7533,-41.0
7534,102.0
7535,-46.0
7536,24.0
7537,9.0
7538,51.0
7539,-57.0
7540,12.0
7541,-75.0
7542,88.0
7543,-93.0
7544,84.0
7545,-63.0
7546,48.0
7547,-34.0
7548,147.0
7549,25.0
7550,-18.0
7551,32.0
7552,14.0
7553,6.0
7554,6.0
7555,18.0
7556,19.0
7557,0.0
7558,44.0
7559,-12.0
7560,14.0
7561,-12.0
7562,-6.0
7563,-1.0
7564,4.0
7565,12.0
7566,32.0
7567,15.0
7568,11.0
7569,-50.0
7570,-4.0
7571,0.0
7572,-2.0
7573,-71.0
7574,94.0
7575,-17.0
7576,16.0
7577,-36.0
7578,71.0
7579,-48.0
7580,54.0
7581,10.0
7582,62.0
7583,108.0
7584,-20.0
7585,25.0
7586,-33.0
7587,23.0
7588,-12.0
7589,42.0
7590,-14.0
7591,33.0
7592,-8.0
7593,-54.0
7594,50.0
7595,-27.0
7596,42.0
7597,10.0
7598,-17.0
7599,9.0
7600,3.0
7601,10.0
7602,50.0
7603,-6.0
7604,23.0
7605,6.0
7606,-7.0
7607,15.0
7608,-27.0
7609,61.0
7610,-29.0
7611,215.0
7612,-182.0
7613,182.0
7614,-154.0
7615,194.0
7616,-168.0
7617,214.0
7618,-212.0
7619,278.0
7620,-294.0
7621,473.0
7622,-235.0
7623,259.0
7624,-227.0
7625,353.0
7626,-251.0
7627,205.0
7628,-200.0
7629,190.0
7630,-142.0
7631,132.0
7632,67.0
7633,187.0
7634,-42.0
7635,-21.0
7636,-107.0
7637,117.0
7638,-53.0
7639,131.0
7640,-119.0
7641,103.0
7642,-107.0
7643,51.0
7644,-94.0
7645,97.0
7646,-71.0
7647,77.0
7648,-58.0
7649,60.0
7650,11.0
7651,110.0
7652,-31.0
7653,0.0
7654,-9.0
7655,-119.0
7656,33.0
7657,318.0
7658,-55.0
7659,276.0
7660,-342.0
7661,339.0
7662,-306.0
7663,355.0
7664,-334.0
7665,372.0
7666,-544.0
7667,812.0
7668,-784.0
7669,877.0
7670,-51.0
7671,40.0
7672,-49.0
7673,30.0
7674,-12.0
7675,29.0
7676,-4.0
7677,19.0
7678,-9.0
7679,7.0
7680,-36.0
7681,27.0
7682,-9.0
7683,13.0
7684,-24.0
7685,26.0
7686,4.0
7687,5.0
7688,0.0
7689,3.0
7690,-17.0
7691,22.0
7692,7.0
7693,6.0
7694,11.0
7695,12.0
7696,15.0
7697,-11.0
7698,-17.0
7699,-8.0
7700,128.0
7701,11.0
7702,16.0
7703,-45.0
7704,9.0
7705,-46.0
7706,44.0
7707,34.0
7708,13.0
7709,38.0
7710,257.0
7711,-108.0
7712,-85.0
7713,-12.0
7714,100.0
7715,-62.0
7716,608.0
7717,-449.0
7718,420.0
7719,-411.0
7720,687.0
7721,-46.0
7722,25.0
7723,-32.0
7724,53.0
7725,-22.0
7726,26.0
7727,0.0
7728,5.0
7729,-8.0
7730,-6.0
7731,14.0
7732,27.0
7733,-21.0
7734,56.0
7735,15.0
7736,51.0
7737,-40.0
7738,60.0
7739,-27.0
7740,33.0
7741,10.0
7742,121.0
7743,-72.0
7744,133.0
7745,-32.0
7746,199.0
7747,-72.0
7748,8.0
7749,13.0
7750,19.0
7751,25.0
7752,-42.0
7753,47.0
7754,2.0
7755,-20.0
7756,5.0
7757,-17.0
7758,-34.0
7759,47.0
7760,-76.0
7761,68.0
7762,-112.0
7763,168.0
7764,-111.0
7765,80.0
7766,-58.0
7767,91.0
7768,-109.0
7769,98.0
7770,-84.0
7771,124.0
7772,-111.0
7773,148.0
7774,-143.0
7775,125.0
7776,-201.0
7777,299.0
7778,-145.0
7779,149.0
7780,-173.0
7781,632.0
7782,-137.0
7783,110.0
7784,-59.0
7785,274.0
7786,-237.0
7787,259.0
7788,-15.0
7789,28.0
7790,-18.0
7791,16.0
7792,-31.0
7793,36.0
7794,-42.0
7795,25.0
7796,-33.0
7797,131.0
7798,-33.0
7799,90.0
7800,-70.0
7801,266.0
7802,-237.0
7803,265.0
7804,-343.0
7805,410.0
7806,-457.0
7807,416.0
7808,-288.0
7809,298.0
7810,-375.0
7811,268.0
7812,-156.0
7813,374.0
7814,-264.0
7815,244.0
7816,-413.0
7817,416.0
7818,-355.0
7819,435.0
7820,-417.0
7821,345.0
7822,-484.0
7823,309.0
7824,-369.0
7825,492.0
7826,-536.0
7827,13.0
7828,66.0
7829,-18.0
7830,38.0
7831,80.0
7832,-21.0
7833,231.0
7834,-169.0
7835,368.0
7836,-317.0
7837,361.0
7838,-322.0
7839,412.0
7840,-406.0
7841,445.0
7842,-314.0
7843,421.0
7844,-354.0
7845,391.0
7846,-397.0
7847,400.0
7848,-196.0
7849,325.0
7850,-155.0
7851,285.0
7852,-219.0
7853,509.0
7854,-250.0
7855,276.0
7856,-221.0
7857,226.0
7858,-237.0
7859,312.0
7860,-251.0
7861,386.0
7862,-211.0
7863,201.0
7864,-211.0
7865,313.0
7866,-342.0
7867,464.0
7868,-344.0
7869,450.0
7870,-401.0
7871,391.0
7872,-189.0
7873,425.0
7874,-282.0
7875,236.0
7876,-321.0
7877,361.0
7878,-259.0
7879,332.0
7880,-248.0
7881,301.0
7882,-200.0
7883,112.0
7884,-170.0
7885,122.0
7886,-133.0
7887,291.0
7888,-263.0
7889,250.0
7890,-137.0
7891,126.0
7892,-325.0
7893,556.0
7894,-12.0
7895,-12.0
7896,57.0
7897,80.0
7898,390.0
7899,-291.0
7900,310.0
7901,-327.0
7902,413.0
7903,-448.0
7904,457.0
7905,-513.0
7906,664.0
7907,-755.0
7908,771.0
7909,-861.0
7910,879.0
7911,-855.0
7912,898.0
7913,-761.0
7914,759.0
7915,-694.0
7916,763.0
7917,-724.0
7918,771.0
7919,-659.0
7920,759.0
7921,-873.0
7922,7.0
7923,-1150.0
7924,4.0
7925,-5.0
7926,3.0
7927,-2.0
7928,2.0
7929,-1.0
7930,1.0
7931,-37.0
7932,18.0
7933,-25.0
7934,44.0
7935,-46.0
7936,61.0
7937,-39.0
7938,47.0
7939,-16.0
7940,36.0
7941,-40.0
7942,36.0
7943,-27.0
7944,86.0
7945,-68.0
7946,32.0
7947,-9.0
7948,27.0
7949,-8.0
7950,22.0
7951,-34.0
7952,22.0
7953,-13.0
7954,52.0
7955,-27.0
7956,-11.0
7957,85.0
7958,-51.0
7959,73.0
7960,-57.0
7961,166.0
7962,-83.0
7963,153.0
7964,-137.0
7965,203.0
7966,-176.0
7967,226.0
7968,-198.0
7969,153.0
7970,-92.0
7971,183.0
7972,-15.0
7973,178.0
7974,-221.0
7975,203.0
7976,-10.0
7977,133.0
7978,-108.0
7979,6.0
7980,-68.0
7981,267.0
7982,-88.0
7983,193.0
7984,-68.0
7985,182.0
7986,-123.0
7987,171.0
7988,-182.0
7989,128.0
7990,-304.0
7991,183.0
7992,-244.0
7993,187.0
7994,-251.0
7995,252.0
7996,0.0
7997,57.0
7998,-66.0
7999,125.0
8000,-41.0
8001,310.0
8002,-73.0
8003,104.0
8004,-157.0
8005,182.0
8006,-190.0
8007,162.0
8008,-169.0
8009,125.0
8010,-125.0
8011,164.0
8012,-133.0
8013,122.0
8014,-100.0
8015,129.0
8016,-159.0
8017,133.0
8018,-117.0
8019,238.0
8020,-167.0
8021,217.0
8022,-186.0
8023,348.0
8024,-289.0
8025,251.0
8026,-229.0
8027,239.0
8028,-252.0
8029,218.0
8030,-638.0
8031,606.0
8032,-723.0
8033,771.0
8034,-561.0
8035,735.0
8036,-779.0
8037,801.0
8038,-782.0
8039,-51.0
8040,40.0
8041,-49.0
8042,32.0
8043,-46.0
8044,32.0
8045,-36.0
8046,34.0
8047,-59.0
8048,54.0
8049,-8.0
8050,34.0
8051,0.0
8052,76.0
8053,11.0
8054,86.0
8055,-27.0
8056,-1.0
8057,16.0
8058,36.0
8059,-49.0
8060,9.0
8061,-16.0
8062,23.0
8063,-13.0
8064,-16.0
8065,32.0
8066,28.0
8067,-25.0
8068,40.0
8069,1.0
8070,65.0
8071,-63.0
8072,12.0
8073,28.0
8074,36.0
8075,35.0
8076,6.0
8077,15.0
8078,1.0
8079,89.0
8080,-25.0
8081,40.0
8082,10.0
8083,17.0
8084,26.0
8085,-2.0
8086,89.0
8087,-185.0
8088,180.0
8089,-47.0
8090,50.0
8091,-19.0
8092,86.0
8093,36.0
8094,25.0
8095,73.0
8096,-5.0
8097,32.0
8098,73.0
8099,20.0
8100,-152.0
8101,405.0
8102,-99.0
8103,21.0
8104,-132.0
8105,136.0
8106,-25.0
8107,49.0
8108,-154.0
8109,117.0
8110,-153.0
8111,139.0
8112,-138.0
8113,153.0
8114,-92.0
8115,239.0
8116,-48.0
8117,-462.0
8118,-617.0
8119,-409.0
8120,725.0
8121,-717.0
8122,867.0
8123,-3.0
8124,-51.0
8125,40.0
8126,-49.0
8127,30.0
8128,-27.0
8129,12.0
8130,-17.0
8131,34.0
8132,-55.0
8133,5.0
8134,16.0
8135,34.0
8136,37.0
8137,62.0
8138,27.0
8139,-10.0
8140,18.0
8141,-4.0
8142,30.0
8143,60.0
8144,-71.0
8145,97.0
8146,-17.0
8147,36.0
8148,-21.0
8149,46.0
8150,-26.0
8151,83.0
8152,-109.0
8153,81.0
8154,-85.0
8155,219.0
8156,-96.0
8157,103.0
8158,-88.0
8159,114.0
8160,-66.0
8161,136.0
8162,0.0
8163,212.0
8164,34.0
8165,379.0
8166,-442.0
8167,447.0
8168,-330.0
8169,363.0
8170,-352.0
8171,308.0
8172,-475.0
8173,427.0
8174,-313.0
8175,401.0
8176,-455.0
8177,423.0
8178,-400.0
8179,401.0
8180,-455.0
8181,865.0
8182,-882.0
8183,-46.0
8184,25.0
8185,-32.0
8186,53.0
8187,-22.0
8188,26.0
8189,-15.0
8190,35.0
8191,-44.0
8192,54.0
8193,-75.0
8194,76.0
8195,-132.0
8196,89.0
8197,-100.0
8198,101.0
8199,-89.0
8200,103.0
8201,-71.0
8202,105.0
8203,-39.0
8204,49.0
8205,375.0
8206,81.0
8207,-89.0
8208,-7.0
8209,-7.0
8210,114.0
8211,-25.0
8212,61.0
8213,-73.0
8214,112.0
8215,-75.0
8216,64.0
8217,-32.0
8218,71.0
8219,-77.0
8220,206.0
8221,-106.0
8222,117.0
8223,-12.0
8224,173.0
8225,-40.0
8226,71.0
8227,-19.0
8228,55.0
8229,-60.0
8230,75.0
8231,-74.0
8232,59.0
8233,-63.0
8234,-14.0
8235,50.0
8236,-21.0
8237,-9.0
8238,197.0
8239,-168.0
8240,191.0
8241,-109.0
8242,84.0
8243,11.0
8244,-38.0
8245,170.0
8246,-107.0
8247,-12.0
8248,8.0
8249,0.0
8250,19.0
8251,53.0
8252,45.0
8253,0.0
8254,44.0
8255,30.0
8256,19.0
8257,-52.0
8258,35.0
8259,21.0
8260,-10.0
8261,97.0
8262,-23.0
8263,38.0
8264,416.0
8265,-348.0
8266,373.0
8267,-386.0
8268,411.0
8269,-388.0
8270,412.0
8271,-374.0
8272,359.0
8273,-348.0
8274,386.0
8275,-415.0
8276,404.0
8277,-341.0
8278,415.0
8279,-329.0
8280,420.0
8281,-400.0
8282,375.0
8283,-348.0
8284,362.0
8285,-329.0
8286,313.0
8287,-355.0
8288,756.0
8289,-340.0
8290,348.0
8291,-326.0
8292,356.0
8293,-328.0
8294,384.0
8295,-371.0
8296,356.0
8297,-348.0
8298,371.0
8299,-350.0
8300,368.0
8301,-326.0
8302,346.0
8303,-333.0
8304,348.0
8305,-339.0
8306,339.0
8307,-456.0
8308,5256.0
8309,-5123.0
8310,7.0
8311,-5.0
8312,5.0
8313,-4.0
8314,-37.0
8315,42.0
8316,-32.0
8317,53.0
8318,-28.0
8319,36.0
8320,-12.0
8321,28.0
8322,-33.0
8323,39.0
8324,-38.0
8325,46.0
8326,-37.0
8327,72.0
8328,-23.0
8329,46.0
8330,-13.0
8331,35.0
8332,0.0
8333,-8.0
8334,-17.0
8335,0.0
8336,-27.0
8337,3.0
8338,5.0
8339,17.0
8340,-23.0
8341,19.0
8342,-16.0
8343,25.0
8344,-34.0
8345,41.0
8346,-12.0
8347,0.0
8348,-13.0
8349,4.0
8350,2.0
8351,34.0
8352,-12.0
8353,0.0
8354,-10.0
8355,0.0
8356,-17.0
8357,0.0
8358,-9.0
8359,9.0
8360,-7.0
8361,1.0
8362,10.0
8363,-8.0
8364,5.0
8365,-9.0
8366,-3.0
8367,-2.0
8368,-3.0
8369,-6.0
8370,0.0
8371,-7.0
8372,-5.0
8373,-3.0
8374,-3.0
8375,7.0
8376,-10.0
8377,4.0
8378,-6.0
8379,10.0
8380,0.0
8381,11.0
8382,-9.0
8383,7.0
8384,-8.0
8385,2.0
8386,-4.0
8387,4.0
8388,-2.0
8389,-54.0
8390,35.0
8391,-51.0
8392,26.0
8393,-35.0
8394,64.0
8395,-36.0
8396,33.0
8397,28.0
8398,82.0
8399,-20.0
8400,40.0
8401,-78.0
8402,70.0
8403,-6.0
8404,88.0
8405,-60.0
8406,89.0
8407,-91.0
8408,40.0
8409,-13.0
8410,63.0
8411,-35.0
8412,175.0
8413,-98.0
8414,128.0
8415,-106.0
8416,117.0
8417,-17.0
8418,53.0
8419,12.0
8420,85.0
8421,-20.0
8422,28.0
8423,0.0
8424,61.0
8425,-29.0
8426,39.0
8427,-40.0
8428,96.0
8429,-86.0
8430,97.0
8431,-67.0
8432,91.0
8433,-60.0
8434,187.0
8435,-192.0
8436,239.0
8437,-195.0
8438,346.0
8439,-290.0
8440,621.0
8441,-594.0
8442,-54.0
8443,50.0
8444,-30.0
8445,64.0
8446,-34.0
8447,21.0
8448,-4.0
8449,62.0
8450,-77.0
8451,147.0
8452,-88.0
8453,23.0
8454,-35.0
8455,108.0
8456,-33.0
8457,25.0
8458,-61.0
8459,52.0
8460,-29.0
8461,7.0
8462,-44.0
8463,9.0
8464,-18.0
8465,62.0
8466,-9.0
8467,87.0
8468,15.0
8469,116.0
8470,5.0
8471,0.0
8472,-2.0
8473,30.0
8474,-21.0
8475,114.0
8476,-95.0
8477,62.0
8478,-138.0
8479,205.0
8480,-150.0
8481,184.0
8482,-171.0
8483,170.0
8484,-89.0
8485,245.0
8486,-95.0
8487,156.0
8488,-248.0
8489,211.0
8490,-123.0
8491,250.0
8492,-120.0
8493,283.0
8494,-204.0
8495,331.0
8496,-129.0
8497,323.0
8498,-138.0
8499,248.0
8500,-181.0
8501,251.0
8502,-167.0
8503,160.0
8504,-7.0
8505,204.0
8506,-273.0
8507,218.0
8508,-223.0
8509,112.0
8510,-219.0
8511,459.0
8512,-467.0
8513,599.0
8514,-569.0
8515,668.0
8516,-403.0
8517,588.0
8518,-507.0
8519,476.0
8520,-627.0
8521,532.0
8522,-49.0
8523,63.0
8524,-44.0
8525,47.0
8526,-29.0
8527,58.0
8528,-22.0
8529,28.0
8530,-33.0
8531,39.0
8532,-38.0
8533,46.0
8534,-31.0
8535,70.0
8536,-31.0
8537,70.0
8538,-13.0
8539,35.0
8540,15.0
8541,12.0
8542,-33.0
8543,79.0
8544,-10.0
8545,68.0
8546,-15.0
8547,-3.0
8548,-12.0
8549,13.0
8550,0.0
8551,4.0
8552,32.0
8553,-42.0
8554,28.0
8555,-8.0
8556,1.0
8557,-8.0
8558,9.0
8559,-5.0
8560,12.0
8561,-8.0
8562,38.0
8563,-29.0
8564,37.0
8565,-42.0
8566,39.0
8567,-26.0
8568,38.0
8569,-44.0
8570,35.0
8571,-32.0
8572,30.0
8573,-32.0
8574,21.0
8575,0.0
8576,4.0
8577,-9.0
8578,1.0
8579,0.0
8580,21.0
8581,-18.0
8582,14.0
8583,-17.0
8584,21.0
8585,-17.0
8586,20.0
8587,-30.0
8588,6.0
8589,-21.0
8590,16.0
8591,-25.0
8592,19.0
8593,-13.0
8594,20.0
8595,-19.0
8596,-37.0
8597,25.0
8598,-5.0
8599,40.0
8600,-33.0
8601,58.0
8602,-15.0
8603,27.0
8604,-12.0
8605,55.0
8606,-32.0
8607,12.0
8608,-10.0
8609,18.0
8610,-12.0
8611,23.0
8612,-13.0
8613,20.0
8614,-67.0
8615,40.0
8616,-24.0
8617,41.0
8618,-36.0
8619,53.0
8620,-3.0
8621,67.0
8622,-52.0
